325 64
0 0.006318 -0.075126 0.066520 -0.169420 0.027755 -0.216321 -0.001860 -0.106808 -0.143480 0.020725 -0.029586 0.113080 0.007992 -0.108200 0.305635 0.212613 0.186689 -0.188797 0.101662 -0.022484 0.103083 0.028074 -0.010822 -0.190352 0.173958 -0.152359 -0.063030 0.006516 0.230173 -0.030725 -0.057372 0.248256 -0.024654 0.024775 -0.093029 -0.255365 -0.098644 -0.007676 0.157010 0.101267 0.080146 0.050389 -0.094666 0.114086 -0.042042 0.149463 -0.045708 -0.079049 -0.140932 0.041738 -0.011104 0.120955 0.125919 0.030992 0.260287 0.076567 0.012145 -0.003649 0.101545 0.130814 0.018145 -0.137025 -0.233181 -0.026266
1 0.027796 -0.143619 -0.026967 -0.077438 -0.090718 0.083379 0.259563 0.211784 -0.067382 0.113942 0.056157 -0.034535 0.110619 0.032670 -0.116957 0.048065 -0.065678 0.005690 -0.094322 0.078897 0.223911 -0.084503 -0.133208 0.105719 0.236521 -0.026663 -0.174050 0.026769 0.145454 -0.144104 0.210897 0.082454 0.065434 0.075405 -0.008372 0.084638 -0.053644 0.049730 -0.081867 0.150254 0.016628 -0.013029 -0.212991 0.066520 0.013375 0.088272 0.080796 -0.429170 0.083118 0.025413 -0.047282 -0.168873 -0.165581 0.200472 0.096761 -0.037203 -0.205072 -0.075898 -0.086971 -0.085438 -0.072919 -0.080025 0.004512 -0.122258
2 -0.185323 0.087951 0.112564 -0.052778 -0.166072 -0.191509 -0.142739 -0.157852 -0.001869 0.178436 0.102740 0.166943 0.050135 0.135486 0.223585 -0.235788 -0.060767 -0.123146 0.046007 0.132602 -0.055125 0.169438 -0.085046 -0.083846 0.254631 0.024704 -0.048131 0.072324 0.038060 -0.186821 -0.144867 0.073706 0.207007 -0.045240 0.010884 -0.152739 0.139583 0.134090 -0.038780 0.081880 0.063299 -0.031051 -0.196882 0.025187 -0.013834 -0.017650 0.192625 0.181371 -0.034946 -0.021096 -0.257227 -0.069615 0.040907 -0.055193 -0.142008 -0.120960 0.222036 -0.081633 -0.124044 -0.005714 0.045373 -0.020743 0.009315 -0.028575
3 -0.012408 0.255627 0.194236 -0.120398 0.239445 -0.115304 -0.025116 -0.077463 -0.064650 0.025079 0.057110 -0.025517 0.171438 -0.107183 0.232246 0.002498 0.034281 -0.158587 0.093437 -0.019588 0.025217 -0.117113 -0.010689 -0.080780 -0.150710 0.103077 0.062178 0.124058 -0.185249 -0.228727 0.029393 -0.027620 -0.202944 -0.238322 0.090637 0.249431 0.057496 0.131091 0.036287 -0.238192 0.080515 -0.005480 0.123865 0.042625 -0.092111 -0.118011 -0.141704 -0.035468 0.058443 0.214649 0.085388 -0.039067 0.074961 -0.193260 -0.082415 -0.097918 -0.034914 0.064069 -0.004898 -0.003986 0.114624 0.217813 -0.078720 0.003437
4 0.139291 0.103352 0.024684 0.063465 -0.104737 0.118062 -0.072766 0.115386 0.045079 0.144583 -0.015648 -0.057420 -0.021016 -0.022161 -0.133559 0.080294 0.060770 0.316091 -0.195676 0.057796 -0.005698 -0.022071 -0.124600 0.202555 0.148173 0.014632 0.118545 0.165097 0.161767 -0.081694 -0.217578 -0.080225 -0.098670 0.296056 -0.040882 -0.009245 0.005730 0.149142 0.145483 -0.192242 -0.106786 -0.028371 0.161037 0.137010 -0.123735 -0.047129 -0.077012 0.086856 0.040787 -0.029868 -0.030527 -0.060849 -0.000287 0.043117 -0.321511 0.011470 0.020045 0.096186 0.075029 -0.119889 0.077200 -0.224215 0.201074 0.106442
5 -0.065602 0.047024 0.157746 -0.008992 0.279176 -0.025143 0.061169 0.135979 -0.072469 -0.037232 0.144245 -0.171727 -0.204695 0.017133 0.083794 -0.024642 0.055770 0.141849 -0.022581 0.013546 -0.130225 -0.280650 0.164391 -0.014507 -0.025486 -0.129175 0.174887 0.107450 -0.035844 -0.114202 -0.017078 -0.045173 -0.075666 0.014819 -0.058346 0.134249 -0.138306 0.075887 0.245182 -0.099208 0.080750 0.293462 -0.074577 0.107775 -0.103307 0.224660 0.225850 -0.122146 0.018894 -0.030055 0.295844 -0.069052 0.114777 -0.105113 -0.148957 -0.017911 0.041610 0.054519 -0.086706 -0.091431 -0.090356 0.018638 0.061119 -0.075717
6 -0.200152 -0.065949 -0.236286 -0.155047 -0.054933 -0.127103 -0.088600 0.009388 0.024313 0.089737 0.237311 0.065049 0.072782 -0.082572 -0.124491 0.159363 0.001343 -0.028326 0.018235 0.226805 0.041608 -0.129013 -0.020994 0.022620 -0.000162 -0.195743 0.037545 -0.015918 0.039354 -0.184760 0.124644 0.097173 0.180155 -0.038825 -0.063875 0.026834 0.185661 -0.074857 -0.107450 -0.152229 -0.097126 0.061296 0.119763 -0.045095 0.160455 0.002456 0.032605 0.046489 0.010701 0.106067 -0.127645 0.023950 0.186438 -0.080708 0.171382 -0.031785 0.185545 0.012443 0.113535 0.029129 0.026854 -0.072218 -0.049742 0.474492
7 0.069136 0.111131 -0.144500 0.062861 -0.083426 0.072395 0.034522 -0.165669 0.120349 0.128194 -0.147642 0.063289 0.025795 0.075423 -0.130795 0.070345 0.099568 0.045483 -0.095376 0.110130 0.018051 0.031900 0.077152 -0.201281 0.124298 -0.025608 -0.145635 -0.185960 -0.092198 -0.302257 -0.162306 0.051150 -0.009681 -0.047201 -0.227033 0.110501 -0.039022 -0.200511 0.230646 -0.134911 -0.189633 -0.058692 0.030756 -0.073939 0.022929 -0.092481 0.046282 -0.086554 0.086673 -0.124348 -0.095127 0.145125 0.136402 0.009031 0.008358 0.123325 -0.247061 0.071080 0.171307 -0.029098 0.203248 0.132538 0.160127 -0.196852
8 0.101713 -0.049536 0.060939 0.071044 0.218782 -0.019697 0.117700 -0.017355 0.061112 -0.077479 -0.083623 -0.129191 0.061885 -0.023249 0.121962 0.002426 0.216371 -0.362301 0.017227 0.028842 -0.243441 -0.107406 0.006062 -0.175611 0.003460 0.044627 -0.000876 -0.279537 0.024310 0.076276 -0.160064 -0.011439 -0.034455 -0.094415 0.096553 0.120670 -0.068843 -0.135751 -0.196763 0.122511 -0.048275 -0.012273 -0.025565 -0.109225 -0.119003 -0.228571 0.113433 0.013704 -0.088556 -0.179379 -0.114512 0.047683 0.353804 -0.087925 0.121688 0.078051 -0.098482 -0.172201 0.074625 0.020588 -0.045074 -0.077142 -0.041769 0.021975
9 0.138967 0.100170 -0.217288 0.109330 -0.172927 0.111090 -0.092004 -0.047532 0.080015 -0.049655 -0.071976 0.059215 -0.199882 -0.304582 0.059839 0.042430 0.037648 0.202777 0.065704 -0.021933 -0.159674 -0.041851 -0.007335 0.051479 0.001103 -0.070789 -0.164312 0.017742 0.331191 -0.167579 0.098954 0.097547 0.059673 -0.045490 0.092836 -0.132866 0.003485 -0.113178 0.120000 0.015701 -0.055250 0.030133 -0.035056 0.096873 -0.063166 -0.127724 -0.055070 -0.044463 0.097196 -0.094771 -0.123565 0.252372 0.158885 -0.191943 -0.005066 0.138054 -0.001932 -0.147680 0.247026 0.144532 0.030713 -0.208506 0.010005 0.100562
10 -0.017022 0.205009 -0.100945 0.140205 0.149224 -0.027751 0.050673 -0.019026 -0.149354 -0.038821 0.190069 -0.236551 -0.000896 -0.013484 -0.066928 0.018398 0.017432 0.037001 -0.037037 -0.067335 -0.094116 0.288430 0.018743 -0.070447 0.123675 -0.025259 0.132161 -0.096024 -0.094365 0.011565 -0.135392 -0.143053 0.044263 0.115358 -0.000574 0.083813 -0.048356 0.069073 -0.086407 0.037405 -0.084223 0.061956 -0.035634 -0.215462 0.032052 -0.014312 -0.046981 -0.041486 -0.154730 0.227122 0.003353 -0.144101 -0.113904 -0.282958 0.029572 0.095436 0.424481 -0.265632 0.018678 -0.156174 -0.076740 0.025397 0.045399 0.010828
11 -0.016041 -0.046021 0.025994 0.153018 -0.143305 0.145915 -0.077391 -0.093415 0.004222 0.211417 -0.038490 -0.233816 -0.019818 -0.112718 -0.080047 -0.008592 0.102551 0.159163 0.074291 0.165581 -0.034497 -0.076667 0.233039 0.110016 -0.012685 0.142965 -0.017288 0.004102 -0.128452 0.041818 0.155948 0.045339 0.023630 -0.016177 0.034547 0.000665 -0.044664 0.103334 -0.000645 0.108493 -0.106130 0.088022 -0.019128 0.111227 0.167257 -0.071991 -0.073719 -0.217431 0.144241 0.174668 0.079678 -0.051652 0.189263 -0.057954 0.015313 -0.055438 -0.300364 0.179700 0.088701 -0.065397 -0.017425 0.113851 0.420342 -0.131303
12 -0.061385 -0.058414 -0.049562 -0.131541 0.204245 -0.094966 0.276565 -0.155808 -0.113885 -0.194677 0.126224 0.164608 0.029128 -0.177090 0.011452 0.013012 0.001076 -0.029286 0.043015 0.096332 -0.212475 -0.165150 0.010700 0.132134 -0.074971 0.165751 -0.260965 -0.034232 -0.040626 0.144168 -0.137760 0.045764 0.045759 0.066278 0.125277 0.036597 0.096445 -0.031950 -0.170238 0.015829 0.141418 -0.033055 0.064720 0.115289 -0.164584 0.025482 0.073890 -0.083250 -0.095496 -0.002265 -0.079346 0.065562 0.288182 -0.195530 -0.245005 -0.124853 -0.020111 0.232997 0.136107 0.055671 -0.067957 -0.008245 -0.085886 0.022959
13 -0.007292 -0.055280 0.159576 0.045169 0.024364 -0.185203 -0.125282 -0.045588 -0.074857 0.248782 -0.066860 0.031103 0.044725 0.178198 0.117543 0.056231 -0.197988 -0.138368 0.180873 0.234580 0.210190 0.190362 0.250629 -0.052313 0.073043 0.071109 -0.162540 0.028923 -0.123299 -0.048888 0.017898 0.037997 0.009266 0.117394 -0.273427 -0.010916 0.041586 0.062598 -0.102864 -0.051142 0.089645 -0.052108 0.016873 0.025545 -0.132054 -0.167402 -0.099021 -0.130023 -0.155983 0.015046 0.049234 -0.062242 -0.042130 -0.075836 0.158683 -0.126328 0.153817 -0.069280 -0.094489 0.208249 -0.062320 -0.080658 -0.265657 0.106291
14 -0.201068 -0.171252 -0.046169 -0.062768 0.004392 -0.232705 -0.081038 -0.050218 -0.132503 -0.047599 0.033179 0.216517 0.071453 0.098844 0.006265 -0.054236 0.060689 -0.098962 0.031477 0.137152 -0.141566 -0.157922 0.049295 -0.026746 0.132455 -0.153291 -0.192428 0.038401 -0.239618 0.045251 -0.025196 0.011869 0.061448 0.169008 0.097442 0.059498 -0.182934 -0.164757 0.121516 0.133101 0.024467 -0.211796 -0.132134 -0.085409 -0.048806 0.103121 -0.209425 -0.303898 0.007691 0.091769 0.001036 0.156148 -0.101583 -0.089983 0.254688 -0.055275 -0.060603 -0.148634 -0.040938 0.006849 0.050375 0.081730 -0.199967 -0.016305
15 -0.019891 0.010244 -0.018324 -0.060756 -0.023148 -0.062664 -0.207457 -0.058779 -0.106213 0.037827 -0.114906 0.118458 0.170155 0.148012 -0.131632 0.000404 0.209827 -0.056306 0.006693 -0.095052 0.084981 0.074466 -0.009712 0.094954 0.059422 0.182403 0.106894 -0.057628 0.051427 -0.022165 0.203048 -0.073463 -0.196972 0.022371 0.080602 -0.304264 0.036219 -0.178487 -0.143244 0.231554 -0.138716 -0.138411 0.166987 -0.200557 0.059820 -0.197332 0.054625 -0.000876 0.121884 -0.111537 -0.136117 -0.109883 0.159848 -0.013930 0.062049 -0.007346 0.157832 0.031936 -0.137047 0.138305 -0.076483 -0.215146 -0.205415 0.116217
16 0.029762 -0.008307 0.139160 -0.072108 0.046501 0.015184 0.000373 0.081525 0.083161 0.060461 0.147234 -0.030929 0.090812 0.120913 -0.144166 0.083156 -0.073153 -0.008600 -0.193806 0.168684 -0.083386 -0.168625 -0.193052 0.183648 0.182885 -0.019541 -0.135339 -0.101070 -0.119657 0.016519 -0.213416 -0.078322 -0.107551 -0.110400 -0.099873 0.028440 -0.046553 -0.072348 0.066704 -0.056480 0.169153 -0.056750 0.139836 0.023574 0.205905 -0.126514 -0.265414 -0.010934 -0.165049 0.074337 0.157394 -0.055482 0.009009 0.063907 0.264113 -0.060856 0.018840 -0.068379 -0.033045 -0.093379 -0.300274 0.238339 0.166989 -0.129555
17 0.056498 -0.222535 -0.076369 -0.343366 0.120493 0.015908 0.218327 -0.063572 0.031040 -0.094867 -0.014110 -0.134671 -0.060596 -0.033109 0.038979 0.043835 0.126107 0.048486 -0.055309 0.069586 -0.074793 0.091942 0.118706 0.010764 -0.093540 0.021310 -0.017231 0.091599 -0.122243 -0.209673 0.028737 0.000196 0.123921 -0.026024 -0.175021 -0.197897 0.230984 0.059677 0.049888 0.036739 -0.109980 -0.073161 -0.192512 0.093901 -0.185612 -0.005342 0.007221 0.061432 -0.311374 -0.032630 -0.207982 0.005544 0.001484 0.300215 -0.075967 -0.107939 -0.049955 0.109775 -0.065663 -0.109911 0.117988 -0.044656 0.105115 -0.183185
18 -0.132269 0.065968 -0.124026 -0.113086 0.271004 0.098710 -0.025143 -0.170859 0.079629 -0.031994 -0.069719 0.020365 -0.125624 0.285466 -0.162816 0.189342 -0.164160 0.150601 0.163917 -0.123279 -0.003742 0.061331 -0.041110 -0.075035 0.121985 0.049657 0.049568 0.228296 0.024800 -0.014076 0.271720 -0.053338 0.069262 -0.221540 0.108820 -0.089787 0.070331 0.013020 0.050293 0.043881 0.015988 -0.114456 0.091428 0.112482 0.001301 -0.108345 0.004369 0.176268 -0.179013 0.068252 0.045923 0.202930 0.052761 -0.198800 -0.071928 0.011482 -0.084869 -0.062399 -0.057275 -0.039391 0.109284 0.282143 -0.012470 -0.129272
19 0.016979 -0.160446 0.028658 0.074843 0.061407 0.083538 -0.114978 -0.003164 0.069423 -0.020681 -0.038997 -0.211370 0.084399 0.179918 0.096459 0.021154 -0.037439 -0.002462 -0.050647 -0.007239 0.138180 0.115689 -0.266870 -0.003649 0.012230 -0.071484 0.143633 -0.016494 -0.085168 -0.139165 0.027479 -0.316438 0.110064 -0.007728 0.179891 0.059672 0.045209 -0.343796 -0.098069 -0.056954 0.015200 0.176826 0.066636 -0.077440 0.030260 0.066923 -0.132613 -0.272409 -0.006471 0.155124 -0.027406 0.032422 0.016723 0.065983 0.145935 0.243080 0.031884 0.335192 0.101310 0.065298 0.016392 0.010740 -0.147690 -0.011406
20 -0.033388 0.017680 -0.110038 -0.157713 0.016475 0.063440 0.028181 0.157997 0.050615 0.035426 -0.158699 0.067606 0.337034 -0.077176 0.019891 0.121048 -0.134642 -0.114666 -0.205500 -0.008297 -0.063603 0.136994 -0.082015 0.014713 -0.018132 -0.043467 0.024048 0.283038 0.056120 -0.149869 -0.117169 -0.161606 -0.078768 0.155675 0.246035 -0.041460 -0.025259 -0.064758 0.036616 0.109888 -0.170376 -0.019927 -0.139650 -0.126460 0.032372 0.111733 0.123053 -0.126321 0.185267 -0.123606 -0.134785 0.045363 0.206923 0.005212 -0.046702 -0.043595 0.153459 -0.224358 0.022704 -0.140992 0.023500 -0.113892 0.231929 0.113303
21 0.035105 -0.018870 -0.096672 0.145965 -0.058951 0.048375 0.122945 0.139124 0.048838 0.274009 0.024082 -0.196951 0.104362 -0.065922 -0.022383 -0.176999 0.050580 0.061378 0.167365 -0.012447 -0.050682 -0.206286 -0.075686 0.071024 -0.220101 -0.344492 0.001436 0.176921 0.017009 0.185989 0.051919 -0.098650 0.097008 -0.060127 -0.175898 -0.174845 0.039284 -0.073244 -0.073520 -0.143832 -0.016219 -0.004399 0.082941 0.139384 0.061791 0.082037 -0.252296 0.262787 0.055885 0.016930 0.125481 0.007463 -0.133882 -0.109894 0.002612 -0.071881 0.099849 -0.031375 -0.003547 0.115101 0.196691 -0.025007 0.139676 -0.112453
22 0.047010 0.142976 -0.208853 -0.102159 -0.176956 -0.205553 -0.113129 -0.062929 -0.075549 0.183962 -0.117873 -0.195054 -0.000143 0.112581 -0.184039 0.025548 -0.162872 -0.029589 -0.133319 -0.067112 0.068294 -0.106984 -0.108644 0.066509 0.046058 0.382308 -0.183757 0.090176 0.026150 -0.141104 0.032462 0.114142 0.130486 -0.071875 0.006329 0.023779 0.132465 0.087926 0.126599 0.049372 0.284504 0.030474 -0.109778 0.056693 -0.095449 0.098951 -0.123311 -0.083731 0.079657 -0.099681 0.070921 0.034527 0.027498 -0.043231 0.053384 0.097649 -0.065843 -0.130305 -0.312347 -0.016411 -0.029029 -0.094826 -0.096113 -0.082957
23 0.235016 0.211308 0.025620 -0.259170 -0.143645 -0.056753 0.027054 -0.030612 -0.064275 0.046991 0.250432 0.106960 -0.024192 -0.153217 0.097202 0.018926 -0.015780 0.005639 -0.020225 -0.006769 0.134994 0.011213 0.071405 0.024688 -0.016849 -0.022530 -0.162974 -0.157936 -0.085571 0.174946 0.075252 -0.075881 0.107927 -0.030512 -0.106892 -0.054421 -0.011071 -0.103579 -0.079705 0.270925 -0.191451 -0.367354 -0.107103 -0.092049 0.057209 -0.247014 0.089530 0.017913 -0.174703 -0.064030 0.079601 -0.284498 0.025995 -0.034293 -0.010699 -0.095245 0.082995 -0.195180 -0.048281 0.046709 -0.011430 -0.011883 0.022303 0.031978
24 -0.187409 0.153672 0.197972 -0.148163 0.274215 0.270014 0.215973 -0.160446 0.007773 0.084501 -0.101622 -0.043817 0.027144 -0.013714 0.117906 -0.171255 0.231066 0.118310 -0.144284 -0.218267 -0.058445 0.029293 -0.043685 0.201863 0.002568 0.044433 -0.120760 -0.126313 -0.288924 0.131795 -0.051771 0.099378 0.072107 0.058268 -0.090758 -0.123991 -0.012287 -0.034197 -0.112859 -0.074955 -0.057334 -0.029159 0.052093 -0.001227 -0.137986 -0.138286 -0.069182 -0.071530 -0.089952 -0.121790 -0.051660 0.086832 -0.059865 0.138174 -0.155285 0.203044 0.086912 -0.124215 -0.064016 0.075900 -0.022185 -0.047708 0.010239 -0.060510
25 -0.074299 -0.048803 0.066357 0.245355 0.042373 0.163937 0.076247 0.014679 -0.137531 -0.147221 -0.121182 -0.381390 -0.067775 -0.118444 -0.047693 -0.063580 0.118738 0.055466 -0.093099 -0.134736 0.088907 -0.150378 -0.143034 0.038956 0.094302 0.272918 -0.027789 -0.006751 0.102971 0.126960 0.054126 0.034273 -0.112730 -0.075767 -0.082431 0.156904 -0.085042 -0.070122 -0.036439 -0.063757 -0.186506 -0.042981 0.121272 0.086358 0.000354 0.208934 -0.198103 -0.066984 -0.035888 -0.292869 -0.135909 0.104422 0.054348 -0.018972 -0.051037 0.022594 -0.027128 -0.063771 -0.014146 0.108339 0.004583 -0.255943 0.184997 0.051677
26 0.039491 -0.038292 0.220221 0.067857 -0.032045 -0.141404 -0.177084 -0.000497 -0.065382 -0.063571 -0.145763 -0.113673 -0.051709 0.183638 0.148740 -0.008600 0.024496 -0.067071 -0.116868 0.077532 0.147075 0.045750 0.059534 -0.004482 -0.054056 0.020217 0.089953 0.010699 0.246104 0.248502 -0.155917 0.097604 0.103569 0.071890 0.071554 0.025874 0.205656 0.103198 -0.049292 0.073677 -0.236090 0.197149 0.181899 0.054743 -0.167171 0.258485 0.154758 -0.038698 0.066418 -0.128577 0.129948 -0.106952 -0.019159 -0.044284 -0.015583 0.153118 -0.044727 -0.091228 0.037350 -0.092290 0.166543 -0.193345 -0.115833 0.251440
27 -0.257144 -0.065742 -0.047110 -0.149981 -0.161059 -0.103970 -0.051495 0.023462 -0.001998 -0.038717 -0.138618 0.153283 -0.205092 -0.266736 -0.278414 -0.142634 0.014496 0.055358 0.065240 -0.112937 0.002363 -0.001056 0.029627 0.184159 -0.031973 0.040658 -0.047743 -0.112608 -0.274379 0.146076 -0.001838 -0.045001 -0.111602 -0.181882 -0.093221 0.184647 -0.165421 -0.140327 0.064126 -0.036791 -0.071593 0.144495 -0.015626 -0.098693 0.159524 -0.177986 -0.046371 0.063323 -0.180908 -0.129422 0.055959 0.077865 -0.020365 -0.190378 -0.056851 0.030067 -0.020420 0.100583 0.189104 0.156993 0.017218 -0.115547 0.097540 -0.067446
28 -0.075413 0.127564 -0.059648 0.140112 0.001903 -0.043603 -0.068959 0.155897 -0.016007 -0.188410 -0.251469 -0.078026 -0.106356 0.004228 -0.079233 0.049051 -0.065428 -0.020704 0.254203 -0.053082 -0.090881 -0.075576 -0.124289 -0.115673 0.226835 0.044591 0.069114 0.031895 0.074122 0.101226 -0.163736 -0.139446 -0.049872 0.040780 -0.010124 -0.182736 0.067193 0.062597 -0.076135 0.076629 -0.296076 -0.083598 -0.181514 0.224330 0.022062 -0.085542 -0.146275 -0.007582 -0.146199 -0.009211 0.017622 0.121666 -0.045541 -0.094787 -0.096257 -0.048057 -0.011612 0.082727 -0.004494 -0.161314 0.161931 -0.298168 0.077168 -0.290488
29 -0.000671 0.093004 -0.058720 0.248989 0.060615 -0.013215 -0.037861 0.040248 -0.004207 -0.206916 0.069733 0.217604 0.201135 0.046744 -0.022670 -0.300723 0.034358 -0.098816 0.017901 0.175531 -0.139464 -0.066980 -0.190564 -0.090334 0.017543 -0.050728 -0.061617 -0.004002 0.031743 -0.017787 0.058772 0.065379 -0.137891 -0.151965 0.047083 0.181959 -0.132262 -0.086752 -0.025440 -0.093981 0.317838 -0.161399 0.040280 -0.132356 -0.000272 -0.076679 0.212780 0.178118 -0.103977 0.151153 -0.090028 0.080938 -0.193892 -0.076781 0.179325 0.220339 -0.046512 -0.017233 -0.082763 -0.004573 -0.140211 -0.095372 0.094001 0.060646
30 -0.167660 -0.290838 -0.019022 0.097411 0.005792 0.047969 -0.082690 -0.168352 0.152552 0.001345 0.070161 -0.005210 0.057200 -0.056810 0.030310 -0.101099 -0.059419 0.152420 -0.300030 -0.162497 0.041304 -0.194159 -0.082206 0.015833 -0.070367 0.006389 -0.146812 0.073833 -0.095720 -0.060183 0.082695 0.041057 -0.004918 -0.011828 0.064553 -0.052068 -0.001895 -0.084146 -0.170748 0.189414 -0.108510 0.265096 -0.199467 -0.084212 0.015233 -0.028130 -0.075913 -0.379440 -0.001650 -0.002178 0.012444 -0.083130 -0.096325 0.034891 -0.235628 0.189947 -0.036034 0.149241 0.112991 -0.112982 0.087942 -0.057519 -0.141312 0.055122
31 0.037088 0.025491 -0.001896 0.052158 -0.154493 0.164187 0.021517 0.158099 0.151284 0.396256 0.060974 -0.052852 -0.063156 0.057601 -0.164042 0.013968 -0.007868 -0.044033 -0.007603 0.000636 0.114551 -0.013389 -0.197741 0.156862 0.129022 -0.064848 -0.032599 -0.002373 0.046412 -0.032404 0.201286 0.188583 0.152065 -0.082864 -0.072455 -0.096253 0.043936 -0.194874 -0.164953 -0.136871 -0.162699 0.037592 0.060724 0.040447 0.083748 -0.026125 0.190808 -0.057087 -0.032073 0.174515 -0.094869 -0.005955 -0.205750 0.116846 0.072168 0.245721 -0.163527 -0.207272 0.165159 -0.006968 0.066414 -0.045917 0.061428 -0.193724
32 -0.063747 -0.006937 -0.161368 -0.071961 -0.117072 0.106525 -0.133736 -0.130746 -0.052925 0.047367 -0.060016 -0.007804 0.255790 0.243713 -0.025274 0.122859 -0.199898 0.083088 0.088288 -0.051653 -0.112110 -0.043851 -0.088773 -0.203018 -0.009860 -0.150268 -0.285307 0.089274 0.031301 0.179739 0.085604 0.116518 -0.053020 0.216711 0.009616 -0.018820 -0.038868 0.291415 -0.212095 -0.250401 -0.038561 0.045920 -0.108679 -0.038446 0.028039 0.040921 -0.054202 -0.136473 -0.113268 -0.123425 0.140253 0.006877 0.034579 -0.004327 0.193560 0.137623 -0.082994 -0.088398 -0.029785 0.139999 0.194597 0.002700 -0.028539 -0.060754
33 -0.011898 0.148656 0.255156 -0.164822 0.111577 0.124780 0.173160 -0.053462 0.058935 0.056115 0.061490 -0.191849 0.142736 -0.077704 -0.185355 0.019667 -0.066382 0.042302 0.097925 -0.111203 -0.327575 0.059526 -0.024843 0.188133 0.151847 0.152747 0.097770 -0.065864 -0.156495 0.200112 0.053531 0.188987 0.111322 -0.006932 0.130615 0.051386 -0.047605 0.265763 0.083982 -0.063887 -0.150027 -0.179910 -0.013562 -0.114653 -0.074014 -0.128567 0.013744 0.004763 -0.012244 -0.230376 -0.038308 0.088597 0.020889 0.040163 -0.141698 0.021651 -0.109473 -0.035429 0.191159 0.000892 0.130588 0.130076 -0.003250 0.048474
34 -0.165117 0.208930 -0.097263 0.107324 -0.116675 -0.069082 0.031413 0.077565 -0.160001 -0.104943 -0.173490 0.033832 -0.064214 -0.029360 0.014085 -0.119129 0.288883 -0.005482 0.164322 0.074572 -0.191231 -0.242830 -0.126130 -0.036765 -0.004504 -0.236349 0.089991 -0.049192 -0.018878 -0.140787 -0.118813 0.155576 0.109938 0.018613 -0.075590 0.102181 -0.120820 -0.131604 0.084342 0.186090 0.030151 -0.125665 0.179937 0.149650 0.092814 -0.036407 0.180354 -0.004555 0.287902 0.124559 0.064476 -0.029209 -0.016018 -0.031805 -0.036253 -0.135763 0.116323 0.218671 0.015900 -0.006193 0.115133 0.129018 -0.095116 0.022874
35 -0.109991 -0.034532 -0.080031 0.005965 -0.011984 0.184618 -0.161074 -0.003920 0.142112 -0.158082 0.064606 0.114940 0.047746 0.050012 -0.114184 -0.155238 0.108358 0.064514 0.270457 -0.020946 -0.161004 -0.189592 0.168849 0.051548 -0.083593 0.228680 0.078242 0.046054 -0.142569 -0.136702 0.140331 -0.063939 0.066611 -0.120506 0.022311 0.143639 -0.122099 0.206601 0.104882 -0.093487 0.124355 -0.278618 -0.058194 -0.086519 0.018700 -0.087390 0.095808 -0.133733 -0.115194 0.115629 -0.097318 0.145347 0.095936 0.045709 0.157005 -0.053980 0.185244 -0.098963 0.026573 -0.173475 -0.153585 -0.055023 -0.109858 0.191381
36 0.136592 0.041294 0.062983 0.045535 0.139473 -0.000390 0.021679 0.086309 0.063501 0.170598 -0.210408 0.135986 0.017665 -0.013779 -0.292126 -0.078421 0.023216 -0.157310 0.084612 0.069411 -0.128511 -0.048002 -0.034529 0.092898 0.079640 -0.117862 -0.067165 -0.101871 0.003969 0.041504 0.025651 0.066508 -0.055083 0.032453 -0.063812 -0.052943 0.012731 -0.113041 -0.083394 -0.053868 -0.111444 -0.086560 -0.064145 -0.144981 0.053508 -0.283580 0.009375 0.088708 -0.045697 0.043228 0.188040 -0.080163 0.064272 -0.140480 0.066216 -0.013223 0.050161 -0.364733 -0.028344 -0.337289 -0.010416 0.000235 -0.338753 -0.203234
37 -0.167292 0.145966 -0.033548 0.050743 -0.098076 0.029410 0.177509 -0.066984 -0.292430 0.229652 0.047569 -0.107458 0.206964 0.016093 0.096893 0.008640 0.139864 -0.066964 -0.117354 -0.192127 0.006262 -0.038411 -0.054439 0.184464 -0.133606 0.054268 0.030777 -0.049397 0.164791 0.407018 0.048505 -0.214523 -0.105895 0.000031 0.184806 -0.014337 0.154761 0.114493 0.018942 -0.016723 0.011928 -0.078676 -0.122400 0.086958 0.016484 0.079326 -0.200376 -0.044174 0.008528 -0.117716 0.019292 -0.155049 0.078773 0.097420 0.030744 0.126253 0.101071 0.046772 -0.109573 0.144219 -0.005868 -0.120220 -0.154277 0.045407
38 -0.092788 0.070536 0.055702 -0.064056 0.046256 0.018963 -0.241280 0.138316 -0.081529 -0.137527 0.186594 0.058251 0.103149 0.092962 -0.057162 0.197298 -0.090571 -0.051466 -0.167301 0.080330 0.179330 -0.155999 0.011895 0.176785 -0.029699 0.106534 0.251389 0.085435 0.002572 0.129147 -0.155152 -0.011084 -0.203919 -0.131173 0.150632 0.117334 -0.213128 0.034935 -0.028502 0.110717 -0.136269 0.067599 0.138874 -0.070610 -0.007289 -0.129374 0.137092 0.011597 -0.123643 0.151508 0.278445 0.069801 -0.009123 0.182969 0.098381 0.054400 0.103688 -0.013702 0.037511 0.148562 0.237801 -0.081634 0.121408 0.004316
39 0.227364 0.114677 -0.003765 -0.021265 -0.115240 0.060490 -0.079171 0.083180 0.074272 0.079415 0.063865 -0.072669 0.129049 -0.104038 -0.019394 -0.118993 0.133831 -0.168222 -0.123691 -0.039579 0.072847 -0.140273 0.079730 -0.102872 0.069106 -0.144297 0.060187 0.322086 -0.063984 -0.028566 0.142035 -0.154203 0.053779 -0.220253 0.079167 0.056179 -0.266372 0.143393 0.227831 0.074137 0.072364 0.038273 0.109501 0.062106 0.087473 -0.092643 0.105258 0.156190 -0.190471 -0.122801 0.010636 0.083434 -0.055208 0.024629 -0.057246 -0.147433 0.181500 0.044592 -0.131078 -0.188406 0.133990 -0.217024 0.166036 0.056672
40 -0.095150 0.115887 -0.132817 0.143919 -0.161241 -0.100542 -0.063712 0.271918 0.044202 0.116405 -0.028210 -0.145586 -0.023103 -0.102459 0.230293 0.093918 -0.044549 0.026120 0.099876 -0.156285 -0.011581 -0.087161 0.144525 -0.112492 -0.064861 -0.139636 -0.126963 -0.062049 0.242503 -0.070120 0.219652 0.059703 0.066905 -0.103568 -0.099271 0.045233 0.184847 0.073770 0.134578 -0.227805 0.233106 0.103887 0.028517 -0.020142 0.117180 0.051569 0.156936 -0.051559 -0.075331 -0.123336 0.037688 -0.170832 0.080382 -0.093445 -0.171547 -0.211409 0.028037 -0.033170 0.042820 -0.027007 0.106057 0.035531 0.121723 -0.240406
41 0.079536 -0.097941 0.084743 0.032572 -0.251733 0.178781 0.096281 -0.043094 0.008983 -0.030229 0.014817 0.100132 0.072607 -0.139824 -0.065450 -0.014880 -0.110693 0.206973 -0.228895 -0.049810 0.244855 0.026954 -0.139849 -0.306926 0.128244 -0.072378 0.116687 -0.112459 0.251348 0.117008 0.089443 0.017088 0.026219 -0.071603 0.009508 -0.128613 -0.024341 -0.086528 0.008330 0.092699 -0.012746 -0.156976 0.053779 -0.347297 -0.016758 0.007389 -0.022729 0.154581 -0.004187 -0.017580 -0.010453 -0.166775 -0.269052 -0.016837 -0.176353 -0.005216 0.039112 -0.158949 0.081581 -0.114446 -0.069728 -0.017316 -0.079314 0.094881
42 -0.050628 0.187279 -0.096737 -0.214717 -0.066571 0.188250 -0.044621 -0.321096 -0.141982 -0.066486 -0.083973 -0.228170 0.010996 -0.067164 0.220102 0.086785 -0.078152 -0.087359 0.028484 0.039907 -0.018164 0.187605 0.007493 -0.091415 -0.031306 0.073874 -0.197426 -0.042495 -0.146258 -0.241358 0.017927 0.115567 0.063338 0.154590 0.151766 -0.068079 0.162222 0.025130 -0.113544 -0.104084 -0.013578 -0.059235 0.084187 0.122609 -0.177665 -0.188772 0.013640 0.017092 0.075409 0.050085 -0.011585 0.151730 -0.073838 0.023966 0.130876 0.112335 -0.034794 0.035910 -0.244103 0.033603 -0.164778 0.024088 -0.014393 -0.242880
43 0.199920 0.147226 0.146074 -0.020830 -0.056720 -0.135829 0.078533 0.009638 -0.094049 -0.076761 -0.239422 -0.106476 0.070638 -0.116455 -0.094099 -0.067627 -0.085145 -0.106832 0.043482 -0.099049 0.196835 0.078553 -0.085698 0.170117 0.030145 0.214017 0.194680 0.097486 0.045939 0.036802 -0.189839 0.250021 -0.055204 -0.078049 0.062913 -0.130810 0.003251 0.131471 -0.139417 0.214485 0.056838 -0.162032 -0.072958 -0.070896 -0.163906 0.123299 0.169651 0.006236 0.180580 -0.047477 0.034894 0.078150 -0.019904 -0.037015 -0.141936 -0.129068 -0.114765 0.276343 -0.123548 0.068590 -0.007841 -0.079916 -0.208048 0.043897
44 -0.128431 -0.006596 0.044808 -0.059500 -0.022276 0.175013 -0.154651 0.002231 -0.186193 0.108432 0.095642 0.092373 0.091815 0.196610 0.322448 0.315379 0.059240 0.227432 0.000312 0.134390 0.166489 -0.080622 -0.141612 0.009308 0.184830 0.110428 0.164368 0.149822 -0.016875 0.052673 -0.098160 -0.054888 -0.157193 0.049635 -0.014922 -0.056633 -0.154003 0.150002 0.046735 0.009379 -0.016391 -0.142374 0.072227 -0.035949 -0.052380 -0.028269 0.020638 -0.038726 0.079016 -0.141399 -0.073795 0.074542 -0.005190 0.242154 0.060334 -0.077812 0.031127 0.327178 -0.026036 -0.006675 -0.096934 0.095347 -0.100185 0.120771
45 0.051355 0.064395 -0.018766 -0.033345 0.167131 0.000870 0.049917 -0.009071 -0.121174 -0.285333 0.041765 -0.119654 -0.083578 -0.126536 0.111992 -0.020148 0.028701 0.143286 0.146701 -0.110240 0.069368 -0.211207 -0.209757 0.069736 0.208763 -0.030703 0.025446 -0.173208 -0.147163 -0.136449 0.024673 -0.052587 0.063187 0.118457 -0.083486 -0.070586 0.050701 0.006922 -0.065254 0.157371 0.319608 -0.036122 -0.058378 0.044470 -0.080244 -0.109638 0.010947 -0.008175 -0.043140 0.262486 0.036148 -0.106334 -0.007957 0.175077 -0.132730 -0.249860 0.204291 0.027685 -0.039250 0.213064 -0.086849 0.209625 -0.062692 -0.113637
46 -0.084470 0.034035 0.157499 0.115456 0.132401 0.032948 -0.066934 0.033636 0.124716 0.227213 0.077581 0.248137 -0.131822 -0.036753 0.022384 -0.031123 0.039413 0.124894 0.140609 -0.062785 -0.026189 0.140426 -0.003105 0.006681 -0.151980 0.040129 0.122794 -0.079076 -0.012793 0.022718 0.083933 0.299404 -0.038989 0.008507 0.158941 0.014973 0.018739 -0.061754 0.025150 0.273462 -0.124206 -0.081929 0.229784 -0.134000 0.145471 0.003167 -0.006380 0.021020 0.152253 -0.089383 0.044296 -0.048258 -0.072023 -0.091485 0.200347 0.101209 0.044039 0.009037 -0.033666 -0.140465 0.106997 0.044490 0.063189 0.456870
47 0.072361 -0.080991 0.183767 -0.053239 0.091524 0.015296 -0.186234 0.039308 -0.106988 0.113819 0.098905 -0.187723 -0.036639 -0.028319 0.096786 -0.126539 -0.294260 0.015121 -0.166608 -0.118391 0.136324 0.177653 -0.198924 -0.072542 -0.028389 -0.110256 0.158534 -0.183961 -0.072043 0.039198 -0.120945 0.068779 -0.110617 -0.031166 0.057845 0.083145 0.042246 -0.055481 -0.126232 -0.227298 -0.070927 -0.173657 -0.047609 0.158416 0.134201 -0.225235 -0.151747 -0.007603 0.026530 0.090791 0.017981 -0.133860 -0.238938 0.047839 0.190787 0.109928 0.228127 0.013952 -0.068706 0.064091 0.116568 -0.021180 -0.005062 0.166551
48 0.153608 0.111708 -0.133680 -0.013735 -0.026259 0.178353 -0.107158 -0.068990 -0.149812 0.095158 0.048656 0.026591 0.115572 0.396965 -0.095251 0.048093 0.029421 0.199093 -0.026809 -0.011540 0.139097 0.007517 0.029258 0.203798 0.023902 0.073452 0.138701 0.019288 -0.009753 -0.027859 -0.113178 0.247963 -0.066120 -0.023419 -0.014899 -0.110041 -0.024764 0.269131 0.001711 -0.122432 -0.002316 0.017229 -0.131599 -0.021177 -0.010927 -0.000759 0.304511 -0.071110 0.000670 0.132908 0.130932 0.025803 -0.024048 0.168184 0.003767 0.057156 -0.275557 0.152109 -0.080770 -0.178265 -0.034659 -0.209590 -0.004143 0.070276
49 0.163258 -0.033021 -0.099102 -0.179788 -0.050547 -0.047742 -0.124613 -0.025702 -0.212956 0.159890 0.283545 -0.101941 -0.063829 0.030274 0.115448 -0.082206 0.130682 -0.145135 -0.015098 0.037040 0.045425 -0.014567 -0.067388 0.013233 -0.008556 0.082034 -0.024675 0.062548 -0.096062 -0.368798 -0.187833 0.047333 -0.049905 0.038008 -0.052964 0.055698 -0.103406 0.033052 -0.195285 0.079347 0.006244 -0.042582 -0.101062 0.175184 0.153771 0.001392 0.146660 -0.112237 0.099689 -0.348379 0.089885 0.104113 -0.209706 0.089510 -0.226818 0.035645 0.182416 -0.022268 -0.041802 -0.118967 -0.013143 0.002374 0.064185 0.077580
50 -0.074205 0.105371 0.221172 0.139656 -0.051458 0.032987 0.013710 -0.113532 0.008815 0.035567 0.158347 0.113868 -0.115754 -0.223910 -0.258989 0.090248 -0.146663 -0.316922 0.066428 -0.129501 0.211907 -0.001847 0.148357 -0.057224 0.106514 0.116675 0.081869 0.033352 0.198606 -0.085909 -0.113258 -0.049460 -0.204692 0.143157 -0.036257 -0.008570 0.019427 0.130599 -0.029779 0.000734 0.037209 0.110362 0.050985 0.085155 -0.061300 0.125894 0.032587 -0.004325 0.117494 0.013940 0.019081 0.054056 0.259150 -0.035522 -0.059115 0.141140 -0.129688 0.005350 -0.176674 -0.080753 0.154311 0.223809 0.191433 -0.106614
51 -0.066026 0.037753 -0.162779 -0.097367 0.083287 0.137868 0.139243 -0.085267 0.066277 0.102862 0.006693 -0.111890 0.076282 -0.014162 0.420753 0.107294 0.219919 -0.035841 0.066832 -0.137368 -0.210626 -0.226285 0.159378 0.050914 0.021915 0.097568 0.126808 0.064212 0.023570 0.117272 -0.025504 -0.027910 0.012256 0.238300 0.015889 0.001004 -0.129867 -0.207484 -0.089022 -0.141537 0.179541 -0.252762 -0.100666 0.023962 -0.042132 -0.086847 0.036553 -0.107687 0.044377 -0.045322 0.201147 -0.071965 -0.098826 0.110051 0.045154 -0.035935 -0.079927 -0.076345 0.002108 0.069845 0.142696 0.174287 0.070272 -0.138755
52 -0.109205 -0.117624 0.066806 0.170684 0.295095 -0.146469 -0.096483 0.060451 -0.103690 -0.058808 -0.012212 -0.027740 0.029540 0.101469 -0.039387 0.082349 -0.040186 -0.072620 0.057549 0.099108 -0.097026 0.182846 -0.066604 -0.065742 -0.240019 -0.052177 0.316221 -0.070388 -0.270877 -0.353681 0.090811 0.058909 -0.009566 -0.003014 -0.009049 -0.078624 -0.027239 0.015154 0.141276 0.222036 0.095000 0.022967 -0.047679 -0.139083 -0.069264 -0.023373 0.214170 0.011104 -0.157247 -0.163304 0.062970 -0.032976 0.019769 -0.103553 -0.088592 0.145436 -0.013632 -0.007446 0.177017 -0.009887 0.222928 0.014038 0.003496 -0.013486
53 0.021705 -0.170304 0.067975 0.002083 0.031661 -0.100847 0.066671 0.210361 0.132474 -0.028359 -0.105964 -0.070994 0.006471 -0.095287 -0.065165 0.031365 -0.222243 0.109505 0.032681 0.108010 -0.076955 0.029095 0.006592 0.185962 0.094368 0.024194 -0.005958 -0.022499 -0.084500 0.042772 0.165691 0.189942 -0.065075 -0.144742 0.059539 -0.041552 -0.011307 0.017962 0.240029 -0.015901 0.083788 -0.002331 -0.010084 0.053426 0.020482 -0.249997 -0.178650 0.077126 -0.136160 0.081171 0.349665 -0.155887 0.268416 0.004425 0.213761 0.015340 0.244203 0.254440 -0.132839 0.054711 -0.024407 0.009245 -0.043134 -0.149094
54 0.101880 0.106534 0.201867 -0.168583 -0.158688 0.060673 0.164861 -0.008496 -0.036846 -0.034116 -0.071484 -0.042727 -0.112724 0.103633 0.231942 0.281876 -0.028031 -0.089922 -0.074702 -0.179103 0.150054 -0.023710 -0.090120 -0.109232 -0.059083 0.004426 0.109019 0.333223 0.130692 -0.157710 0.065476 0.034048 -0.036118 0.169296 0.157725 -0.162952 -0.063539 -0.060532 -0.146359 -0.045398 -0.061064 0.067227 -0.098134 -0.056771 -0.183626 0.179222 -0.044441 0.161853 0.119513 0.002168 -0.086036 -0.034153 0.196490 0.065663 0.144977 0.079242 0.004830 -0.153882 -0.122461 -0.104062 -0.154155 0.128159 -0.012922 0.112640
55 -0.105344 0.122461 0.288152 -0.036939 0.007431 -0.071281 0.241674 0.021008 -0.039946 0.162749 0.130393 0.194761 0.215933 0.032763 -0.274739 0.097498 0.195377 -0.001151 0.187271 0.007617 -0.073628 0.034182 0.174805 0.141902 0.023841 0.154814 -0.212045 0.143633 0.033067 0.209377 -0.152089 0.141409 -0.167339 0.012242 0.116661 0.180535 -0.048652 -0.065532 0.121375 0.049146 -0.023597 0.030434 -0.149239 0.027299 0.014851 0.108061 0.057336 0.014922 0.048887 -0.088704 0.130659 -0.086537 0.064065 0.115855 -0.069504 -0.005548 -0.164973 0.039986 -0.019463 0.003568 0.057912 0.228843 -0.144267 0.005168
56 -0.091066 -0.212240 0.093721 0.118086 0.077274 0.154538 -0.158275 0.185864 0.162862 0.130951 0.149728 0.056019 -0.043033 -0.188530 -0.147106 0.057989 0.004696 0.080806 0.053240 -0.254780 0.097694 -0.007949 0.189611 0.113157 -0.100447 -0.141327 -0.181720 -0.013016 -0.119044 0.276683 -0.055972 0.048717 -0.007799 0.117682 -0.126276 -0.158264 0.165171 0.041175 -0.017607 -0.158944 0.220901 -0.057792 0.089224 0.025059 0.005717 0.189213 0.031272 0.012112 -0.023215 -0.096029 -0.008092 -0.009889 -0.008860 0.148055 0.155061 -0.123177 0.077393 0.062653 -0.094863 -0.021943 -0.039551 -0.044309 0.246793 0.220453
57 0.020464 -0.100559 0.015253 0.142764 0.179499 -0.208651 0.004370 0.191958 -0.100168 -0.096847 0.036548 0.237376 -0.002791 -0.110028 -0.153269 0.201515 0.164757 0.082384 -0.011696 0.128829 0.296490 0.107583 0.020786 -0.016845 0.240167 0.098197 0.004078 0.003436 0.031722 -0.080626 0.268225 -0.060231 0.053924 0.143796 -0.152236 0.086180 -0.102489 0.023257 0.121920 -0.030195 -0.089372 0.218338 0.115618 0.172012 0.096267 -0.143006 -0.204748 -0.104108 -0.073723 0.053581 -0.082630 -0.109957 -0.014098 0.114524 -0.185962 0.113307 0.001172 -0.121181 -0.027683 -0.101280 -0.099991 -0.076070 0.093140 0.037410
58 -0.014817 0.237893 -0.106177 0.056031 -0.132662 0.114191 -0.012204 0.106630 -0.117138 -0.084708 -0.003353 -0.138783 -0.204933 0.077083 0.003762 -0.173350 0.013977 0.107028 0.072658 -0.060589 0.220993 -0.139240 0.189225 0.145851 0.031285 0.048761 -0.059163 -0.164084 -0.195500 -0.013755 0.011697 -0.104436 -0.046074 0.036368 -0.011021 0.061186 -0.035640 -0.151120 -0.008800 0.052436 -0.218859 -0.121108 0.000979 0.061307 -0.016264 -0.292492 0.053024 -0.193169 0.128062 -0.110947 -0.058841 0.063843 -0.304714 0.000715 0.193149 0.000322 0.060586 -0.126413 0.084040 -0.063456 -0.250223 0.008054 -0.064093 0.221051
59 0.049835 -0.004683 -0.138629 -0.120011 0.115056 0.009697 -0.203079 0.149922 0.046232 0.173089 0.042354 0.195626 0.004854 0.013978 -0.007353 -0.028877 0.058595 0.039601 0.228023 -0.090736 0.058478 -0.075541 -0.081952 0.170762 0.072647 -0.204746 0.037791 0.147728 0.037286 -0.045739 0.069169 0.042499 -0.135058 -0.081621 0.258765 -0.020964 0.312052 -0.092193 -0.090038 -0.079998 -0.013796 0.032447 -0.212528 -0.019966 -0.005578 -0.144760 0.140996 0.014226 -0.141522 0.085739 0.035861 0.275952 -0.190798 -0.048766 0.073586 0.068253 0.095849 -0.079202 -0.034756 -0.322580 -0.028977 -0.158950 -0.094204 -0.113421
60 -0.043065 -0.070218 -0.361718 -0.057193 -0.088045 0.030513 -0.022910 0.055515 0.083230 0.061583 0.039910 0.056422 0.135323 0.073776 0.051722 0.072401 0.071378 -0.135238 -0.116744 -0.079885 -0.143553 -0.007447 -0.055682 0.000501 0.027478 -0.100185 0.249702 0.081562 -0.004882 0.164346 0.077032 -0.077716 -0.222109 0.086857 0.043616 -0.133943 -0.057554 0.091614 -0.076428 -0.114878 -0.157989 -0.124861 -0.097264 0.048807 0.039064 -0.015353 0.169223 0.005934 0.092510 0.142589 0.322638 0.218697 0.034200 -0.121592 0.051152 -0.043716 -0.134672 -0.283618 -0.143043 -0.266492 -0.012838 0.058591 -0.024526 -0.166870
61 -0.171740 -0.136678 0.117586 0.074349 -0.009827 0.023853 -0.095373 0.125817 -0.043031 -0.128476 -0.065171 -0.161869 -0.141661 0.012520 -0.184446 -0.001472 0.077725 0.007803 -0.184276 0.036202 -0.080037 -0.132762 -0.099938 0.055203 0.012457 -0.037319 0.186961 0.091332 0.068267 -0.194345 0.092995 -0.209189 0.073435 0.020951 -0.071143 0.173286 -0.198565 0.126276 -0.008083 -0.152216 0.048360 -0.119654 -0.194480 -0.064159 -0.027797 -0.070131 0.228026 -0.292789 0.086231 -0.134674 -0.244780 0.133637 -0.011479 -0.047921 0.233975 -0.101665 0.066349 -0.066012 -0.196077 -0.000867 0.069760 -0.168228 -0.062244 -0.095208
62 0.250516 0.293578 0.114150 -0.019529 -0.044731 0.142386 -0.271838 0.133307 -0.047070 -0.048333 0.090451 -0.169782 0.071896 0.172313 -0.086134 -0.097670 0.212533 0.118782 -0.038758 -0.196195 0.007187 0.020499 -0.122754 -0.032720 -0.185444 0.017598 0.053247 -0.102348 -0.108201 -0.136335 -0.094622 -0.095213 0.073765 -0.011987 -0.162282 -0.207097 -0.036346 0.044017 0.039008 0.199873 -0.033830 0.125825 0.177433 -0.263331 -0.038571 0.258845 -0.011114 0.157490 0.102698 0.129201 -0.024914 0.014182 0.020218 0.080293 -0.095317 -0.033194 -0.077219 -0.008587 -0.066264 0.032160 -0.035667 0.135082 -0.098396 -0.039883
63 0.133687 0.077834 0.232895 -0.070429 0.013557 -0.143716 -0.183994 0.123889 -0.031282 -0.040352 0.063950 0.127897 -0.021011 -0.137089 0.061326 0.051727 -0.056512 -0.057354 -0.154948 0.209130 -0.260685 0.139294 0.181619 -0.251366 0.148234 -0.101123 0.007696 -0.097005 -0.036076 0.044297 0.086599 0.105607 0.133965 0.125092 -0.152248 -0.001370 0.020417 -0.035615 -0.040194 0.075920 -0.098834 -0.142109 0.206385 0.244791 0.060994 -0.103293 -0.050319 0.022250 -0.023055 -0.051110 0.138833 -0.134355 -0.071606 0.061185 0.059819 0.119851 0.166106 -0.289543 0.149687 -0.085694 -0.110431 -0.090697 0.174121 -0.042728
64 0.004148 0.072992 0.083031 0.166605 0.021906 -0.138454 -0.025734 0.073303 -0.047595 -0.096720 0.031139 0.113632 0.206108 -0.218959 0.066677 0.042492 -0.018846 0.005271 -0.186971 0.072041 -0.043266 0.004748 0.045274 -0.212369 -0.191452 -0.016239 -0.029080 -0.044066 -0.113782 -0.023838 0.166708 0.091972 -0.199044 0.150817 0.078006 -0.095166 -0.050106 0.059245 0.093323 -0.280358 0.005009 0.044398 -0.010402 -0.232815 -0.120532 -0.001106 -0.004508 0.267693 -0.061983 0.178483 -0.031229 0.010250 -0.029938 -0.270490 0.100048 0.123551 0.132217 -0.034940 0.141525 -0.188659 0.224796 -0.112334 0.055013 0.207674
65 0.102597 -0.189406 0.053416 0.039934 -0.020632 -0.030790 0.073841 -0.096981 -0.115205 0.005585 0.082518 -0.079167 -0.173321 0.051751 -0.113487 0.067397 -0.069597 0.108935 -0.229224 0.073250 0.005183 0.008542 0.083348 0.364453 -0.067141 0.226963 -0.218763 -0.180526 0.113748 0.065364 0.258263 0.007382 -0.056245 -0.197842 -0.114396 -0.104353 -0.185968 0.231858 -0.124789 -0.143347 -0.112871 -0.012000 -0.138289 0.074326 0.184950 0.025713 0.075655 -0.036312 -0.007179 0.063388 0.041191 0.038721 -0.009553 0.234665 -0.083568 -0.140894 0.083065 0.135746 0.064817 -0.028321 0.043589 0.080601 0.058277 -0.141095
66 -0.178941 -0.082838 -0.015075 -0.089057 0.176348 0.071118 -0.045564 -0.098838 0.175353 -0.181552 -0.025047 0.078496 -0.133888 -0.098762 -0.009761 0.096588 0.008249 -0.123933 -0.142932 0.092712 -0.026514 0.023642 0.136856 -0.018764 0.123774 -0.024357 0.083805 0.224138 -0.087805 0.024276 -0.091139 0.007195 -0.005964 -0.074841 -0.154459 -0.024388 -0.135066 -0.233837 0.134490 -0.111933 -0.081423 -0.135362 0.039134 -0.110444 0.058287 -0.097750 -0.086935 -0.097102 0.094180 0.017347 -0.084479 0.020279 0.036563 -0.172013 -0.059510 -0.183585 -0.218236 -0.370602 -0.101499 -0.037397 0.312799 -0.240866 -0.051870 -0.019130
67 0.017094 0.199433 0.140286 -0.034672 0.029501 0.048598 -0.071305 0.043820 -0.084009 0.215520 0.193140 -0.002930 0.010811 -0.228550 0.125200 0.069383 -0.381269 -0.098270 -0.070999 -0.020597 0.042312 0.266138 -0.212657 -0.096037 0.119050 0.071537 0.142023 -0.066221 0.078640 -0.048199 0.126778 -0.012446 -0.001041 0.133117 -0.052552 0.163288 0.031867 -0.054690 -0.012289 -0.082830 0.073946 -0.244004 -0.039102 -0.075092 -0.104101 0.120325 0.193934 0.124182 -0.025345 -0.153352 0.081164 0.008612 0.137412 0.044241 -0.044620 0.178258 -0.038548 -0.088198 -0.145047 0.169472 -0.034989 0.009689 0.085679 -0.217315
68 0.168614 0.024601 -0.043696 0.057891 -0.105494 -0.058411 0.216401 0.122538 0.049162 0.105822 0.203162 -0.026194 -0.073378 -0.009444 -0.116407 0.018509 0.007320 0.017251 0.012259 -0.020192 -0.093258 -0.232705 0.072386 -0.021163 0.018405 0.007639 0.078125 0.035463 0.191818 0.067017 -0.083910 -0.299577 -0.267992 0.088769 0.047935 -0.256886 -0.037581 0.058248 -0.086752 -0.153527 0.076390 0.196602 -0.235859 -0.231313 -0.049597 0.098981 0.096303 0.046194 -0.020037 -0.080898 -0.097723 -0.127541 0.000223 -0.022349 0.261111 -0.051736 -0.270205 0.197190 0.056773 -0.037263 0.027880 -0.076610 -0.026110 -0.099840
69 -0.212645 -0.030099 -0.056541 0.172230 -0.044045 0.124882 0.045797 -0.117308 -0.055431 0.235699 -0.140687 0.091253 0.071283 -0.095495 -0.105350 0.253162 -0.251966 0.130951 0.108500 0.083124 0.153912 0.070519 0.009250 -0.080463 0.231287 0.021810 -0.158246 0.135874 -0.105902 0.056173 -0.085724 0.008213 0.264717 -0.005308 -0.045411 -0.097921 -0.104081 0.115574 -0.029636 -0.006648 0.006069 -0.070516 -0.054097 0.041841 -0.194873 -0.138184 -0.022483 -0.013807 0.091931 -0.202247 0.043610 0.153478 -0.106683 -0.100442 0.165286 -0.010541 0.003276 -0.038138 0.134353 0.090897 -0.051058 -0.191100 -0.278231 -0.123847
70 0.023569 -0.025393 0.016659 -0.029873 -0.144220 -0.071944 0.021971 0.042555 -0.341375 -0.199622 0.024040 -0.054488 0.082661 -0.160100 0.016403 -0.042056 -0.125006 0.048772 -0.289531 -0.074359 0.174077 -0.021008 -0.142001 0.004862 0.152650 0.002702 -0.078003 -0.015030 -0.091379 0.151869 -0.215361 -0.031560 0.063339 -0.076425 -0.002170 -0.048400 -0.151942 -0.052971 0.026451 -0.020393 0.021579 -0.136198 -0.042353 -0.142479 -0.114376 -0.097641 0.052800 0.018318 0.238825 -0.384417 -0.122740 -0.087953 0.148279 -0.020936 0.223396 0.179319 0.009085 -0.217338 -0.049326 -0.028442 -0.079922 -0.066178 0.089428 -0.027171
71 0.148377 -0.001105 0.159579 -0.090202 -0.072716 -0.015838 -0.061854 0.052745 0.016572 -0.001613 -0.020714 -0.024082 -0.078196 0.011554 -0.054452 -0.045238 0.211493 -0.271906 0.146078 0.125988 -0.151336 -0.223612 0.008589 -0.019440 0.096073 0.190663 0.065402 -0.040888 -0.073039 -0.002729 -0.002936 -0.047282 0.080208 -0.054976 -0.093316 0.109171 0.007714 0.077232 0.184526 0.093572 -0.119127 -0.125951 -0.151245 0.087496 0.175303 -0.027608 0.311142 -0.151857 -0.071823 -0.011122 0.388508 0.099734 0.190826 -0.230635 -0.157221 -0.013783 -0.018161 0.085151 -0.087289 0.164063 0.065435 -0.053852 0.034259 0.096565
72 0.020481 0.105011 -0.105514 -0.125384 -0.059948 -0.177591 0.148505 0.073522 0.021193 -0.102521 0.034794 0.145184 -0.134319 0.089842 -0.006263 -0.170327 0.127039 0.225932 0.005340 0.148080 0.201490 0.001306 -0.026031 -0.045584 0.195557 -0.304374 -0.019256 0.198633 0.033936 -0.003516 -0.257969 -0.068677 -0.203303 0.017672 -0.021359 0.071314 0.061731 0.160013 -0.029973 0.086827 0.122038 -0.074954 0.101091 -0.093889 -0.200302 -0.083048 -0.237688 0.187980 0.081174 -0.080119 0.023992 -0.104798 0.115565 0.069375 -0.146604 0.147529 0.025816 0.061336 0.097490 0.123174 -0.021997 0.159862 0.124364 -0.122562
73 0.051817 -0.139903 0.115256 0.152332 -0.059919 0.092479 0.139353 -0.152576 0.091416 -0.017059 0.100930 -0.207705 0.046525 0.011629 -0.176135 -0.087268 0.021059 -0.090923 0.129824 0.061434 0.074797 0.009207 -0.191255 0.055033 0.100884 -0.113147 -0.016518 -0.161943 0.231968 -0.005811 0.146858 -0.012826 0.007601 -0.028468 -0.033734 0.162614 -0.061005 0.132813 0.306464 0.152349 0.031833 -0.066065 0.069617 -0.003514 0.053230 -0.339363 0.093709 0.044012 0.109374 -0.060195 0.017037 0.125963 -0.035399 0.169855 -0.171409 0.028574 0.263187 -0.168759 0.030644 0.139456 -0.150160 0.207349 -0.019182 -0.042819
74 0.107799 -0.056428 -0.142549 -0.029545 0.017796 0.037763 0.062588 -0.207121 -0.196142 -0.117202 0.229249 0.137328 0.108389 -0.129087 -0.026792 -0.109233 0.142937 0.040138 0.232714 -0.020922 0.086450 0.053962 -0.167619 0.016960 -0.015661 0.150603 0.080004 0.009204 0.025764 0.035507 0.138841 -0.085078 0.047800 0.144364 0.153791 -0.086683 -0.130881 0.149746 0.033140 0.133123 -0.039960 0.008540 0.115059 0.212827 0.260347 0.059607 0.093840 -0.111224 -0.099719 0.019540 0.077699 0.056391 -0.108375 -0.035311 0.084750 -0.248066 0.227102 0.119097 -0.060960 0.040927 -0.111946 0.231660 -0.193602 -0.189840
75 0.049373 0.113791 -0.116604 -0.102301 -0.108542 0.080821 -0.177988 -0.108873 0.109070 0.012667 0.240287 0.022547 -0.095612 0.114781 -0.043081 -0.056875 0.273592 0.057330 -0.161484 0.131952 0.128895 0.218035 -0.016975 0.048715 0.152133 0.310135 -0.034177 0.063733 0.037189 0.021863 -0.102911 0.002228 -0.161020 -0.009965 0.006723 -0.164720 -0.028238 -0.126125 0.068295 0.135748 0.107466 -0.056967 -0.059248 0.150111 0.157410 -0.155515 -0.179032 -0.041302 0.041383 0.094804 -0.120086 0.009068 -0.001872 0.116299 -0.113417 -0.320421 -0.225343 0.080856 0.084751 0.123239 -0.036585 0.106438 -0.101541 -0.045247
76 0.130335 0.003903 -0.241232 0.097740 -0.053486 -0.118716 -0.081430 -0.243835 0.051381 0.062697 -0.172006 -0.113317 -0.062378 0.237914 0.049126 -0.132069 -0.067296 -0.201103 0.182185 -0.020190 0.017412 -0.018907 -0.039584 -0.066380 -0.111234 -0.081811 0.065421 -0.176461 0.101282 -0.122781 0.227703 0.190132 0.078358 0.043066 -0.100380 -0.127321 0.075688 0.126910 0.094964 -0.099555 -0.009736 0.052797 -0.066151 -0.018943 0.041458 0.217735 0.034029 0.195880 0.090127 -0.008821 -0.048780 -0.083493 0.011995 -0.080784 0.076919 -0.010150 -0.083545 0.355765 0.007619 0.112568 0.050672 0.238421 0.073423 -0.192882
77 0.289792 -0.257201 0.182733 -0.129439 0.004221 -0.146425 -0.054625 0.043025 0.172701 -0.048579 0.237530 -0.138322 0.054791 0.010298 0.101510 -0.022080 0.042578 0.179102 0.059192 -0.034030 0.132074 0.092555 -0.226342 -0.053564 -0.041676 0.144784 0.096154 -0.057979 -0.006983 -0.041119 -0.090966 0.036355 -0.115965 0.035308 0.198009 -0.062584 0.085070 -0.222194 -0.193119 -0.045075 -0.223582 -0.134276 0.069026 0.151133 0.145351 -0.175838 0.010155 0.087897 0.094809 -0.052866 0.110775 0.024226 0.012221 0.189829 -0.065350 -0.214773 0.163596 -0.089821 0.023810 -0.002340 0.057449 0.094164 0.127039 0.047954
78 -0.070061 0.090655 -0.109678 -0.098632 -0.186430 -0.205002 -0.067728 -0.079962 -0.050946 -0.025012 0.219825 -0.087878 -0.090474 0.166197 -0.186610 -0.306501 0.152236 -0.036560 0.053122 0.042542 0.106057 0.038065 -0.097363 0.083974 0.164785 -0.087706 0.062711 0.104135 -0.073740 -0.103897 -0.094717 0.039491 -0.038145 -0.149723 0.023318 0.122887 0.037459 0.001229 0.020452 0.120678 0.074816 -0.148621 -0.108159 0.002351 0.272951 -0.097896 0.036618 -0.009996 -0.056270 0.083319 -0.122517 0.105513 0.094254 0.030249 0.026131 0.259981 0.267820 0.143211 0.203692 0.138698 0.095117 -0.172791 -0.161378 -0.075499
79 0.061852 -0.077542 -0.054140 -0.279373 0.039021 0.227134 -0.275045 -0.017448 0.072189 -0.099934 -0.040090 -0.131110 0.071024 -0.019522 0.018786 -0.086197 -0.101707 -0.008841 -0.071905 0.004679 -0.064057 0.068453 -0.003127 -0.400960 0.146767 0.118940 -0.018508 0.021541 0.158782 -0.136767 0.028715 0.014878 -0.074396 0.226712 0.060983 -0.071395 -0.049755 -0.125789 0.115421 0.006126 -0.234116 -0.049472 -0.062565 0.090838 0.060660 -0.276565 -0.047979 0.042871 0.031508 -0.174702 -0.233760 0.158844 -0.057538 -0.080270 0.099953 -0.120978 -0.140569 0.041423 0.139253 -0.073944 -0.013193 -0.128651 -0.072803 0.031672
80 0.050923 0.170997 0.186815 -0.111251 0.050801 -0.092687 0.044251 0.035364 -0.083963 0.199705 0.134469 0.087937 0.198978 0.087080 0.168477 0.193581 -0.112781 0.086774 -0.176570 -0.252639 0.158356 0.075168 -0.010246 0.020278 -0.127230 -0.260618 0.016736 -0.135923 0.079649 -0.250527 0.001705 -0.022231 0.072911 0.096406 -0.034864 -0.058942 -0.135370 -0.024798 -0.169242 -0.081182 -0.213156 -0.154544 -0.118242 -0.114120 0.049304 -0.203456 -0.065356 0.010322 -0.213005 -0.041407 0.154715 0.146973 0.094405 -0.001606 -0.142347 -0.001528 -0.091406 0.027130 -0.014950 0.138764 0.075014 0.106035 -0.112094 -0.062891
81 -0.022004 0.108315 -0.004235 -0.145438 0.200259 -0.130963 0.094479 -0.074608 0.021687 0.055849 0.040212 0.054145 0.078857 -0.194354 -0.131604 0.271600 0.027426 0.078049 0.016717 0.341248 -0.088857 0.102566 -0.163571 0.050321 -0.039050 -0.002190 -0.111129 0.167771 -0.199650 -0.059317 0.003917 -0.060678 0.317457 -0.000446 0.035596 0.106366 0.022914 0.243594 -0.152789 0.013365 -0.183874 -0.091867 0.131821 -0.122868 0.069496 0.003928 -0.109583 -0.086232 -0.220236 -0.071127 -0.041901 -0.015624 -0.234155 0.192123 0.106231 0.010723 0.091182 0.097264 0.061958 -0.006040 -0.046371 0.071888 -0.060933 0.064260
82 -0.104581 0.149503 -0.110585 0.150036 -0.159976 0.051642 0.067643 0.245757 -0.004951 -0.105237 0.067458 0.054516 -0.077813 0.026539 0.138108 -0.113547 0.117293 0.154310 -0.007780 0.033247 0.034320 0.075396 0.001800 -0.040563 0.085392 0.095058 -0.132454 0.063057 -0.154732 -0.064729 0.116232 0.102447 0.271890 0.057494 -0.129426 0.182863 0.041066 -0.065951 0.014505 -0.064367 -0.141246 0.057066 -0.050771 0.047539 0.167350 0.124393 -0.064616 -0.293264 0.005922 0.255032 0.066414 -0.059808 -0.094624 0.071609 0.058105 -0.116527 0.331830 0.018088 0.226936 0.028580 -0.063628 -0.064323 0.095194 -0.246061
83 0.220538 -0.070094 -0.031021 -0.011248 -0.225820 0.146503 -0.131854 -0.074699 -0.062406 0.108923 -0.046566 0.052033 -0.026648 0.237193 0.036192 -0.064018 0.123961 -0.137588 -0.012141 0.141483 -0.062514 -0.049741 -0.091932 0.213420 -0.006996 -0.114189 -0.104404 0.243325 0.324146 0.178486 -0.018168 -0.146443 0.037298 0.119507 -0.074759 -0.265084 -0.080807 -0.093998 -0.063009 -0.089259 -0.194494 0.142515 0.086649 0.239077 -0.048115 -0.120586 0.032351 -0.045584 0.046346 -0.019056 0.086446 -0.139707 -0.057895 -0.019881 0.118531 -0.130878 -0.187120 -0.010993 -0.047760 0.174670 -0.038240 0.018031 0.118453 0.019770
84 -0.070678 0.054291 0.029817 -0.051862 -0.015362 -0.009129 -0.144397 -0.061649 0.062997 -0.117303 -0.131385 0.161071 0.191893 -0.009439 -0.110676 0.284400 -0.038053 -0.035386 -0.255138 0.053040 -0.062671 -0.189219 -0.080049 0.131988 0.197506 -0.080191 -0.158469 0.046939 0.035060 0.086400 0.094480 0.203842 -0.049988 0.091102 -0.069783 -0.095818 0.104677 0.036270 -0.095062 -0.059420 -0.235065 -0.021940 -0.127860 -0.011653 0.139684 0.091051 0.147502 0.087097 0.113799 -0.266544 0.035244 0.059993 0.015186 0.075006 -0.289738 0.092491 0.026604 -0.214707 0.186391 -0.059833 0.211839 0.027718 -0.048767 0.083855
85 0.192439 0.136676 -0.037871 0.114585 0.089282 -0.082484 -0.181581 0.066556 -0.070472 -0.049205 0.106309 -0.076198 0.038666 0.027744 0.034152 -0.145779 -0.165999 -0.012987 -0.128679 0.088428 -0.085662 -0.043247 -0.067356 0.015131 -0.215325 -0.059349 0.066110 -0.013619 -0.110097 0.046726 -0.467371 0.070190 0.020147 0.031019 0.060200 0.069210 0.217311 -0.120534 0.083123 0.024604 -0.182446 -0.119839 -0.009400 -0.054236 -0.139935 -0.154655 -0.162387 -0.147604 -0.297898 -0.031910 -0.081792 -0.060293 -0.083460 -0.098109 -0.065699 -0.127617 0.112031 -0.021968 -0.128259 -0.234204 -0.083928 0.033921 0.015711 0.136901
86 -0.081684 -0.017919 -0.318180 -0.009752 0.171230 -0.287384 -0.117528 -0.028197 -0.051404 0.057138 0.021086 -0.136029 -0.011996 -0.006957 -0.158680 0.061921 0.161680 -0.083144 0.162266 -0.253569 0.022444 0.087713 -0.190585 0.012549 0.044046 -0.118260 0.256022 -0.188810 -0.065171 0.116241 -0.124269 -0.102812 -0.090819 0.084286 -0.046104 -0.054739 0.017672 -0.133492 -0.040241 -0.017353 0.194868 -0.009439 0.165459 0.053497 -0.173716 -0.040219 -0.195337 0.301834 -0.002317 -0.019811 0.018564 0.119417 -0.095902 0.085388 0.067896 0.107836 0.177866 -0.083751 0.031006 0.006942 0.134280 -0.024698 0.017021 -0.075083
87 0.045238 -0.006193 -0.099921 0.044296 -0.449491 0.093753 -0.043563 -0.056483 0.010391 0.030864 0.090475 -0.125334 -0.030895 -0.007398 0.220787 0.063057 -0.005710 0.007264 0.218512 0.077189 0.209573 -0.227936 0.082339 0.081955 0.138687 0.037536 0.026210 -0.013645 -0.242163 -0.006417 -0.029945 -0.147297 -0.137030 -0.162832 -0.103976 -0.020642 0.018139 0.118590 0.064176 -0.081322 -0.048634 0.155433 0.191948 -0.100199 -0.090556 -0.114996 0.015181 0.002552 -0.019560 -0.087848 0.047656 0.013152 -0.193067 0.132485 0.133208 -0.051310 -0.029769 0.155855 -0.024659 -0.342550 -0.082686 -0.033360 -0.060589 0.090488
88 0.140914 0.120840 -0.108789 -0.053561 -0.067922 -0.041703 -0.001301 -0.086438 -0.097513 0.060155 0.050032 0.178828 -0.076619 0.059216 -0.132366 -0.203423 -0.053853 0.234911 0.081609 -0.099796 0.219331 0.075574 -0.218945 0.159556 -0.204449 0.018191 0.030786 0.055018 -0.067356 0.065116 0.143293 0.116661 0.032003 -0.077099 -0.124541 -0.160748 0.089014 0.005321 0.017731 -0.016885 -0.095340 0.059515 -0.067444 -0.140230 -0.148044 -0.134117 -0.005518 -0.235836 0.034710 0.094235 0.055542 -0.007634 0.076342 0.219050 0.060450 0.367541 0.150998 0.277904 0.076476 -0.064208 -0.075132 -0.071628 -0.111054 -0.044996
89 0.200113 -0.082367 -0.202510 -0.151106 -0.079140 0.159448 -0.112782 0.188430 -0.027079 0.052553 0.063616 0.044982 -0.146346 0.036325 -0.019445 -0.195289 -0.044992 0.042782 -0.030671 0.069455 -0.059378 -0.000656 -0.094368 0.020529 -0.057840 0.119467 -0.133720 -0.136384 0.093611 0.100699 0.038300 0.238431 -0.000811 0.284174 -0.073488 0.019417 -0.027391 0.127099 0.152734 -0.261142 -0.089916 0.354664 0.040937 -0.034763 -0.080513 0.057565 0.085209 0.256523 -0.006756 -0.164659 -0.151920 0.097323 -0.018415 0.103827 0.051573 0.125527 -0.113307 -0.101253 -0.061125 -0.113453 -0.142203 0.032480 0.102559 -0.097416
90 -0.169069 0.044494 0.019751 -0.017503 -0.090204 0.158629 0.085159 0.041636 -0.049634 -0.044943 -0.198926 -0.031074 0.165806 0.042513 0.013567 -0.125144 -0.094690 0.182782 0.025433 -0.075471 -0.046996 -0.038285 0.132368 -0.052670 0.021086 0.163480 0.101235 -0.026416 -0.150643 -0.242948 0.071116 -0.086286 0.108566 -0.050846 0.064066 -0.164818 -0.237369 -0.146354 -0.071744 0.348347 0.096536 -0.009840 0.109100 0.066613 0.006536 -0.386520 -0.125450 0.072678 -0.093274 0.051479 0.105500 -0.043509 0.059593 0.094191 0.015884 -0.200782 -0.033899 -0.233213 -0.067812 -0.116442 0.074806 -0.165628 0.027572 -0.017452
91 -0.120143 -0.083039 0.036765 -0.025169 0.025261 0.111968 -0.094973 0.114706 -0.025290 -0.072837 0.301840 -0.163193 -0.199129 0.180782 -0.078245 -0.177844 0.105574 0.133268 0.196581 -0.086302 0.060332 0.212920 -0.069488 0.075074 0.032322 -0.128208 0.124818 0.001394 0.014662 -0.156572 -0.128401 0.069031 -0.171225 -0.087609 -0.003335 -0.007251 -0.080414 -0.041493 -0.136213 0.172896 -0.117909 0.204405 0.091753 0.168805 0.027644 -0.260349 0.014555 -0.034889 0.079347 0.235537 -0.107595 0.257393 0.034183 0.076568 -0.074177 0.027507 0.172318 0.044016 -0.115077 -0.031032 0.023548 0.084594 -0.017869 -0.176231
92 0.142021 0.080360 0.104872 -0.087512 0.232106 0.235161 0.052743 -0.079095 0.042461 -0.156569 0.078838 0.093946 0.044702 0.104377 -0.093800 -0.311021 0.057342 0.094006 -0.073157 -0.018775 0.075284 0.033000 0.137837 0.121970 0.137297 0.205889 -0.151488 -0.158433 -0.114346 0.001786 -0.041522 0.208147 0.046572 -0.046257 0.064498 0.033743 -0.202318 -0.007448 -0.050028 -0.110697 0.092301 -0.002111 0.222524 -0.038408 -0.139199 -0.153272 0.254568 -0.003526 0.011375 0.133177 0.045549 -0.049484 0.034858 0.117325 -0.030160 0.057940 -0.169014 0.203286 0.129186 0.025403 -0.269050 -0.104959 -0.047065 -0.061688
93 -0.116593 0.146634 -0.163012 -0.172102 0.067750 -0.086131 0.015096 -0.015033 0.078594 -0.149331 -0.151810 0.330207 -0.004963 -0.118968 -0.109865 -0.034370 0.123230 0.052428 0.013552 -0.095882 -0.000804 0.178874 0.082966 0.229671 -0.087933 -0.025088 0.216858 -0.071611 0.073680 -0.147421 0.160809 0.033034 0.119019 0.008053 -0.082259 -0.124478 -0.044654 -0.083028 0.088301 -0.003430 0.065374 -0.115117 -0.093353 -0.060450 -0.116918 0.036894 0.105019 0.163191 -0.093147 -0.153308 -0.042789 0.061410 -0.133763 0.218286 -0.021035 0.141299 -0.197950 0.194795 0.162714 -0.134086 0.146455 0.208740 -0.049644 -0.161602
94 -0.141509 -0.100557 -0.035753 0.188659 -0.032943 -0.087294 0.083017 -0.062369 -0.126703 0.091060 -0.042770 -0.029165 0.062126 -0.164558 0.103235 0.167588 0.064974 -0.049371 -0.115626 -0.053815 -0.054423 0.081932 0.074993 -0.128517 0.038458 0.137870 -0.033586 -0.051285 0.179726 0.055259 -0.370633 0.030561 0.074030 0.118195 -0.156773 -0.006995 -0.081006 -0.011403 -0.087765 -0.116159 -0.041046 -0.179298 -0.021894 0.133213 0.038051 0.273484 -0.311531 -0.036099 -0.185924 -0.010054 0.113116 -0.059442 -0.024346 -0.090907 0.050169 -0.066242 -0.207015 -0.301804 0.037333 0.153827 -0.027196 -0.018370 -0.109659 -0.163331
95 0.268694 0.234221 0.015194 0.056088 0.126194 -0.086631 0.045661 -0.125583 -0.050437 0.134032 0.103587 -0.234187 0.026831 0.076618 0.067755 -0.136874 -0.007044 0.034374 0.115743 0.148912 0.046638 0.000361 -0.099325 0.169753 0.083458 0.085465 -0.003378 -0.008987 -0.071997 -0.113834 0.122763 0.004081 -0.080172 -0.189179 -0.129099 -0.199861 -0.005327 -0.064630 -0.219596 -0.084270 0.055815 0.153782 -0.090648 0.060306 0.136018 -0.238327 0.063485 -0.207085 -0.220029 0.015348 0.116164 -0.037598 0.219114 0.032814 0.101364 0.053012 0.170774 0.077318 -0.145604 -0.005339 0.113670 -0.100375 0.113586 0.223263
96 -0.029993 0.261488 -0.001201 0.086400 0.014162 -0.041426 -0.165130 0.036151 0.155388 0.074692 -0.182658 -0.012405 -0.149765 -0.105049 0.277062 0.288928 0.105250 0.247036 0.052981 -0.096260 -0.030330 -0.174101 0.193264 -0.141469 -0.092606 -0.059543 -0.049433 -0.050938 -0.018722 0.161418 0.130900 0.011235 -0.041426 -0.029319 -0.137544 0.138214 0.044970 0.302591 -0.076390 -0.151248 -0.020525 0.083249 0.188134 -0.257378 -0.085900 -0.022248 -0.089427 -0.035660 -0.106218 0.053732 -0.026694 0.041321 -0.151899 0.030324 -0.036090 -0.192426 -0.069346 0.125660 0.042290 0.011684 0.039940 -0.066751 0.045440 0.060341
97 -0.017186 -0.106021 0.052621 -0.079604 0.028412 -0.055138 -0.154245 -0.069456 -0.032775 0.248489 -0.087542 0.072835 0.078325 -0.185833 0.043859 0.123813 0.113056 -0.019620 0.056623 -0.014351 -0.026113 -0.198940 -0.200484 0.061049 -0.208201 -0.030216 -0.017258 0.088719 0.057008 -0.066326 0.178375 0.056962 0.022692 0.153025 -0.273914 0.264234 -0.099545 0.074550 -0.031135 -0.164067 -0.042603 -0.021942 0.011254 0.003608 0.112775 0.139309 -0.303419 -0.249456 0.163172 -0.126334 -0.012526 -0.020709 0.186781 0.036614 -0.079365 -0.082324 0.158688 -0.138778 0.151391 -0.001789 0.174600 0.115070 0.084927 0.074298
98 -0.144285 0.082308 -0.031978 -0.083503 -0.097380 -0.243132 -0.032541 0.025089 -0.093172 0.074385 -0.111749 -0.080298 -0.030636 -0.047523 0.102851 0.072000 -0.093231 -0.019310 -0.044692 -0.025826 -0.116819 -0.162755 0.072631 -0.093319 0.139151 0.044622 -0.137435 0.199526 -0.330435 -0.097046 -0.064614 -0.075554 -0.015199 0.178016 -0.084476 0.150326 0.098395 0.015462 -0.137663 -0.089119 -0.267832 -0.134161 0.127209 -0.122580 -0.034102 -0.207639 0.044546 -0.172545 0.127951 0.040257 -0.318071 0.139570 -0.069108 0.074412 0.273275 0.083936 -0.124172 -0.033764 0.019643 0.073787 0.032587 0.077766 -0.099564 0.045775
99 -0.296114 -0.262752 -0.203150 -0.087515 -0.050360 0.089714 -0.147826 -0.087495 -0.070039 0.095801 -0.083080 0.002456 -0.024482 -0.235643 -0.165044 0.009648 0.071783 -0.005139 0.167801 -0.128822 0.077490 0.071105 0.177262 0.022435 0.096950 0.024516 -0.082065 -0.079510 0.120753 0.097324 -0.010730 -0.079549 0.132734 0.255670 -0.007057 0.112653 0.155180 0.121204 -0.025983 0.039411 0.022970 0.117791 -0.090073 0.035246 0.112253 -0.169687 0.034349 0.068424 -0.164124 0.086686 0.131483 -0.165161 0.026337 0.097137 0.265729 0.088472 0.201976 0.057839 0.098017 0.132292 0.050582 -0.133989 0.166783 0.091835
100 0.024673 0.020687 0.033845 0.141646 0.041560 -0.057163 -0.025389 0.019377 -0.093037 -0.002658 -0.023620 -0.027982 -0.011650 -0.077427 -0.343017 -0.192239 0.238816 0.170280 -0.209172 -0.022838 0.106312 -0.188146 0.155529 0.160854 0.157608 0.041839 -0.004574 0.134236 -0.096595 0.055858 0.057908 0.037354 0.059930 -0.137213 0.033101 0.069619 0.052532 0.002099 0.207617 0.204814 -0.161597 0.023520 0.043350 0.046030 0.206584 -0.116295 0.048522 0.112624 0.105623 0.092032 -0.232337 0.033162 -0.002210 -0.036331 -0.047260 -0.078604 0.155052 -0.149884 0.080950 0.172116 -0.107065 -0.203934 0.239838 -0.127696
101 -0.159721 0.115358 -0.120434 0.160739 -0.161897 0.045337 0.018882 -0.107544 -0.134154 0.068411 -0.043714 -0.000756 -0.304771 0.174859 -0.124698 0.142058 0.209605 -0.087936 -0.100763 -0.004350 0.066300 0.028553 0.034669 -0.034968 0.212072 -0.227573 -0.148005 0.025732 -0.039885 -0.180835 -0.023682 -0.000240 -0.226506 -0.236157 -0.067404 -0.064604 0.084303 0.056462 0.068638 -0.144174 0.002520 0.118714 -0.027761 0.142376 0.019347 -0.094475 0.282236 -0.037587 0.051642 -0.102982 -0.230895 0.040210 -0.208971 0.144098 -0.160045 -0.082566 0.096817 0.017519 -0.038870 0.014992 0.014574 0.076279 -0.016334 0.115493
102 0.054121 0.106910 -0.044839 0.059095 -0.085408 -0.048579 -0.148063 -0.068074 -0.062193 -0.100585 -0.217324 -0.226433 -0.073200 -0.127554 0.035737 0.138134 0.080526 -0.050156 0.046716 0.022408 -0.216152 0.162850 0.050319 -0.002594 -0.063326 -0.163408 -0.079937 -0.077454 -0.088990 0.145300 -0.193320 -0.031196 0.000794 0.089372 -0.151684 0.009472 0.218657 0.197921 -0.214111 -0.204351 0.058516 0.149503 -0.233217 0.042954 -0.096733 0.077614 -0.083676 0.082393 0.070498 -0.157213 0.152139 -0.065519 0.139759 -0.008988 -0.229902 0.040261 -0.157878 -0.073145 0.103619 0.062281 -0.282642 -0.070257 0.112947 0.031156
103 0.102193 0.125991 -0.241256 0.133426 -0.014150 0.146803 -0.011100 0.087273 -0.163308 0.139254 0.113207 0.048516 0.077403 0.069409 -0.207700 -0.115738 -0.125617 -0.158513 0.051668 0.075629 -0.057298 0.083567 0.266851 -0.014830 0.216197 -0.160987 -0.118427 -0.109677 0.049147 -0.095061 0.168113 -0.064603 -0.114597 0.146482 0.016398 0.019481 -0.053457 -0.114571 0.004946 0.005959 0.046070 -0.020145 0.121189 0.142932 0.194161 0.173463 0.053479 0.148660 0.150455 -0.070295 0.065343 0.117592 0.174434 0.140133 -0.142827 0.133982 -0.232231 0.017969 0.067267 0.046018 -0.043894 -0.034752 -0.088405 0.280016
104 -0.058681 -0.057906 -0.275191 -0.067860 0.050573 -0.114684 -0.120159 -0.099228 -0.097756 0.043061 -0.222197 0.098723 -0.015087 0.118163 0.080031 -0.388220 0.003150 0.064709 0.154505 -0.152265 0.117220 0.009186 -0.108619 -0.085369 0.008763 0.000834 -0.148995 -0.003138 0.076044 0.190688 0.296097 0.126645 0.038772 0.046070 -0.136289 -0.100240 -0.067785 -0.059015 0.014412 0.126149 -0.063726 -0.033277 -0.043044 0.051595 -0.032110 -0.059468 -0.107522 -0.127841 0.044911 -0.118773 0.124235 0.007611 0.148977 0.276451 0.088482 -0.088241 0.082591 -0.213457 -0.176498 -0.025893 0.056694 -0.105524 -0.063165 0.178126
105 -0.051313 0.129123 0.139091 -0.154230 -0.143059 -0.087652 -0.114181 0.141174 0.076368 -0.110525 -0.099105 -0.057065 0.104021 0.172177 -0.013514 -0.129925 -0.352670 0.078516 0.050782 -0.190259 0.028433 -0.165856 -0.089033 0.097737 -0.138286 0.093331 -0.036371 0.035081 -0.043085 -0.058556 -0.125270 -0.186044 -0.176654 -0.065232 -0.098319 0.061454 -0.212302 0.169833 -0.139581 0.016727 0.126073 -0.031155 -0.046051 0.103868 -0.091084 -0.179761 0.035463 0.076801 -0.215847 -0.006908 -0.365242 -0.093540 -0.046868 0.035871 0.106692 0.021568 -0.103019 -0.056945 0.070343 0.056250 -0.180222 0.015942 0.002002 0.088027
106 0.214679 0.146211 0.394197 0.038375 0.056219 -0.086978 0.278966 -0.094276 0.007526 -0.063309 0.071566 -0.195646 0.073602 -0.167261 -0.073690 0.066584 0.142305 0.025545 0.076425 0.000272 0.148636 0.074481 -0.116599 0.153746 -0.048712 0.089088 0.048148 0.204091 -0.007201 0.049781 0.206155 -0.130161 0.093601 0.166315 0.054898 0.091403 -0.156490 -0.128018 -0.028007 -0.226529 -0.040090 0.005639 0.149478 0.005148 0.146597 -0.047048 0.040843 0.107507 0.155193 0.051798 0.050343 -0.132205 0.160729 0.072830 0.009133 0.222381 -0.070950 -0.019183 -0.073725 -0.006152 0.034105 0.136158 -0.045079 0.133688
107 -0.071372 -0.099041 0.089503 -0.162285 -0.020984 -0.094491 0.185395 -0.074509 0.021972 -0.147119 -0.248488 -0.029045 0.099535 0.084060 0.065654 -0.007390 -0.163421 -0.066021 -0.033275 0.100049 0.056237 -0.052830 -0.125081 -0.037892 -0.180462 0.060523 0.053423 -0.034398 -0.188251 0.135062 -0.178290 0.225530 0.109379 -0.188935 -0.233725 0.181250 0.174953 -0.176840 0.059875 -0.062468 0.138229 0.062811 0.115785 0.051594 0.006327 -0.182365 0.036610 0.040025 0.122182 0.086733 -0.035913 0.144532 -0.090898 0.206375 0.118261 0.061255 0.158763 0.029279 -0.086844 0.111524 0.275094 0.168935 0.010373 -0.100667
108 0.013362 -0.207163 0.091243 0.022386 0.043531 0.049024 -0.087281 -0.086261 0.102990 -0.149969 -0.008250 -0.050496 0.007707 0.091844 -0.043538 0.075415 0.060738 0.162778 -0.069412 -0.052497 0.105063 -0.177006 -0.039861 -0.119026 0.016666 0.338449 -0.048125 -0.349564 -0.030410 -0.132625 0.055194 0.091822 -0.118978 0.168040 -0.215682 0.153757 0.029894 -0.063829 0.216231 -0.071506 -0.020640 -0.068730 0.016029 0.093916 -0.081035 0.050224 0.056667 -0.062157 0.082780 -0.202280 0.139708 -0.006339 -0.126348 -0.120850 0.139327 -0.088818 -0.169970 -0.182505 -0.176607 0.137646 0.045671 -0.001827 -0.108820 -0.245909
109 -0.036323 -0.098629 -0.089887 0.064558 0.228732 -0.056658 -0.028298 -0.187316 0.134306 0.001448 -0.138062 -0.101345 -0.083131 -0.108057 0.012987 -0.166175 0.133181 0.247770 0.101509 0.325319 0.000696 0.201901 0.104974 -0.042201 -0.110617 0.169742 -0.049976 -0.154362 -0.118454 0.040591 -0.087632 -0.075860 0.098372 -0.005222 0.128403 0.255508 0.066114 -0.057600 0.205996 -0.095014 0.135725 -0.117702 0.131371 0.104173 0.035534 -0.230072 -0.051368 0.017474 0.172173 0.140046 0.148387 0.179397 0.083488 -0.113661 -0.026087 -0.039869 0.096626 -0.012012 -0.102050 -0.039135 0.094805 -0.040901 -0.137710 -0.037550
110 0.115094 0.023808 0.077803 -0.135084 -0.089608 0.002447 -0.062607 0.070996 -0.063553 0.040696 -0.306736 0.116207 0.032196 -0.049202 0.162553 -0.039326 0.066741 0.261983 -0.147611 -0.059435 -0.036634 0.003355 0.071718 -0.218397 -0.188068 -0.110598 0.106332 0.013667 0.026257 -0.073811 0.153336 0.124366 -0.087333 0.041922 -0.037336 0.146396 0.157345 0.124120 -0.040779 0.043247 -0.026662 -0.118095 0.030528 -0.065750 0.057887 -0.094600 0.064311 0.077239 0.124463 0.108044 -0.167878 0.294047 0.345852 -0.016205 -0.025414 -0.043145 0.028631 -0.019104 0.267719 -0.108727 -0.075940 0.111343 -0.199553 0.135204
111 0.078782 -0.032320 0.014456 -0.092528 0.009989 -0.084648 0.011471 0.192759 0.058605 -0.384575 0.015000 0.072416 -0.209967 -0.044856 -0.042515 -0.049562 -0.136947 -0.015293 -0.003495 -0.126157 -0.134353 0.003925 -0.080752 0.038165 -0.039769 -0.056599 -0.017401 0.062429 -0.146963 -0.040324 0.156860 0.181253 0.011231 -0.007301 0.117891 -0.215087 0.034431 0.224977 -0.132134 0.117955 -0.074021 -0.204252 -0.108740 -0.099765 -0.000295 0.097054 0.161961 0.057294 -0.235359 -0.140573 -0.115946 0.057291 0.012661 -0.075783 -0.071532 0.061932 -0.003955 -0.340365 0.171278 -0.188442 -0.128409 0.074409 -0.008413 0.143775
112 0.153797 -0.224924 -0.162913 -0.027246 -0.038696 0.048899 -0.175742 -0.096429 0.290647 -0.062789 -0.051148 0.216851 -0.017386 0.042703 -0.063449 0.043724 -0.211530 -0.018868 -0.103482 0.072912 0.270820 -0.056663 -0.091689 -0.044715 0.155671 0.039020 -0.189744 0.119868 -0.090033 0.144225 0.143031 0.062998 0.223675 -0.020930 0.089887 0.132007 -0.033346 -0.096895 0.032700 -0.120995 -0.109763 -0.048842 -0.142268 0.068598 0.159635 -0.100472 0.202426 0.094820 -0.068125 0.194025 -0.181858 0.180014 -0.004326 -0.038278 -0.011443 -0.183571 0.139237 0.098504 -0.027824 0.021841 -0.109907 0.064910 -0.087029 0.079614
113 0.092462 -0.164756 0.190479 -0.030345 0.232817 -0.167071 -0.127678 0.076308 -0.187038 0.055546 -0.025366 0.157616 0.226464 -0.150244 -0.175253 -0.008784 0.003720 -0.054533 0.007417 0.083072 -0.070354 -0.168170 -0.053697 -0.259670 -0.295609 0.023815 -0.192216 0.141137 0.043446 0.016273 0.155807 -0.036693 0.098159 0.086999 0.072145 -0.159707 -0.003356 -0.036858 -0.082735 -0.087444 -0.118878 0.273380 0.065445 -0.049436 0.168381 -0.061476 -0.119846 -0.079256 -0.019464 -0.046503 -0.088411 -0.120150 -0.145631 0.097038 0.140407 -0.101502 0.083282 -0.014051 -0.174176 -0.058791 0.060362 0.020715 0.040685 -0.156011
114 -0.091232 0.097044 0.055231 -0.305986 0.122859 0.008905 0.142032 -0.191459 -0.062238 0.030253 -0.034856 -0.115136 -0.140050 0.017249 0.074688 0.092223 0.048750 0.057656 -0.038590 0.179878 -0.023082 0.210820 -0.102024 -0.094076 0.093117 0.110722 -0.038264 0.281811 -0.122299 -0.290076 0.175627 0.075302 0.151127 -0.032478 -0.002222 0.014590 -0.138736 -0.013096 -0.116682 0.194124 -0.008714 0.209053 0.012228 -0.167551 -0.197120 0.064885 0.036437 -0.038217 0.166468 -0.068506 0.038923 -0.003999 -0.068727 -0.075166 -0.151610 -0.131528 -0.030475 0.192571 0.019419 -0.064973 -0.012411 0.268687 0.048743 0.067062
115 0.093577 -0.069588 -0.055158 0.135660 0.335675 0.044628 0.009502 0.064260 -0.025450 0.002289 0.013635 0.142410 -0.017022 0.174067 -0.044428 0.177626 -0.285027 -0.004531 0.237006 -0.065021 -0.027831 -0.193825 -0.206196 0.194436 -0.007233 0.213909 0.143517 0.199936 0.001894 -0.005553 0.113778 -0.116774 0.047909 -0.055161 0.001443 -0.183181 0.100099 0.111107 -0.101713 -0.188477 -0.188334 -0.038754 -0.011890 0.005938 -0.028974 0.105235 0.048183 0.017247 0.107722 0.085517 0.042380 -0.176339 0.086343 0.022513 0.266909 -0.100951 -0.073188 0.056076 0.125963 0.060947 0.004163 0.043973 0.181082 -0.068377
116 0.213369 0.029672 -0.103290 -0.050043 0.127274 -0.100792 0.000408 0.277935 0.091279 -0.273332 0.028146 0.100237 0.021032 0.083325 0.053672 -0.077384 0.243353 -0.043963 -0.242251 0.171072 0.015051 -0.033273 -0.087082 0.075170 -0.186801 -0.078199 0.076559 0.001370 0.000531 0.088721 -0.096747 0.079710 0.076654 0.226305 0.071748 -0.182611 -0.016886 0.022402 -0.184069 -0.002593 0.180995 -0.029056 -0.037347 0.060095 0.000625 -0.056812 -0.015521 -0.163814 0.293710 -0.040224 0.022610 -0.212312 0.096508 -0.166052 -0.099704 0.025247 -0.122562 -0.120718 0.021356 0.005762 0.018888 -0.185774 -0.189791 -0.107074
117 0.126742 -0.145687 -0.080108 0.055032 0.096396 0.116417 0.336342 -0.025514 -0.080706 -0.009563 0.065974 -0.043907 0.180313 0.205985 0.022508 0.075478 0.020839 0.173658 -0.170871 -0.152921 -0.109096 0.008932 -0.064941 0.025789 -0.260096 -0.148814 0.083522 -0.106316 0.075496 0.024133 -0.061669 0.022533 -0.017269 -0.027585 0.059743 -0.127894 -0.122509 0.062517 0.184258 0.261968 -0.231614 0.054979 -0.004237 0.174163 -0.048364 0.022642 0.032200 -0.038062 0.044427 0.041446 0.217594 -0.192733 -0.059378 0.013596 -0.116789 -0.007837 0.079055 0.041610 -0.062753 0.180185 0.119007 -0.146945 -0.007606 -0.288577
118 0.011228 0.059000 -0.026723 0.242497 0.136463 -0.028661 0.011891 -0.110180 0.002574 0.136645 -0.203689 -0.235595 0.050372 0.241973 -0.131702 -0.101517 0.040029 -0.268372 -0.353611 -0.017049 0.117175 -0.155251 0.026626 0.029233 0.028019 0.210571 0.170956 -0.005308 0.141010 0.133308 -0.022106 0.157102 -0.175862 0.001358 0.005287 -0.056640 -0.058939 0.089418 0.055391 -0.153906 0.030373 -0.112401 -0.045114 -0.016900 -0.238517 -0.011818 -0.120125 0.016852 -0.059841 0.058794 0.095842 0.039096 -0.293055 -0.100636 -0.033314 0.066197 0.005126 -0.083323 0.074075 0.006087 0.133360 -0.043352 0.058541 0.101646
119 0.052810 0.130465 0.289528 0.129735 0.063298 0.130859 -0.117198 0.207930 -0.139920 -0.068220 0.011691 0.108271 -0.072274 -0.067908 0.016308 0.006683 0.014460 0.012109 -0.135146 0.291989 0.230185 0.151136 -0.081923 -0.015193 -0.052874 0.153073 0.225244 0.058915 0.034741 -0.179026 -0.107138 -0.267780 -0.109689 0.130265 0.075476 -0.203102 0.004216 -0.050057 0.047215 -0.026216 -0.178379 0.202938 0.048642 -0.159181 -0.185705 0.029590 -0.148816 -0.113414 -0.199343 -0.049955 0.012910 0.046893 0.084668 -0.145747 0.010431 0.007972 -0.056530 -0.038196 0.100678 -0.020441 -0.067231 -0.000645 -0.149210 -0.063497
120 -0.050654 0.077814 0.131357 0.209508 0.107123 0.106776 -0.100949 0.175733 0.302855 -0.008652 -0.020779 0.106498 0.183490 -0.069292 0.147357 -0.192857 -0.038868 -0.030355 0.077052 -0.064495 -0.118878 0.139455 -0.203811 -0.162054 -0.122606 -0.061344 0.064286 -0.019707 -0.004979 -0.138456 -0.046736 -0.040852 -0.139501 0.018156 -0.007125 0.115637 -0.177495 0.018035 -0.096495 0.032413 -0.037334 0.078188 -0.019428 0.050403 0.030645 0.100702 -0.140370 0.195207 -0.171348 -0.199286 0.076253 0.073523 0.067760 0.141862 -0.097616 0.118600 -0.239250 -0.262078 0.065539 -0.026104 -0.180281 -0.011133 0.229853 -0.073316
121 0.083394 -0.169406 0.090465 -0.016144 -0.002560 0.208433 0.193233 0.168072 0.156604 -0.148901 0.037367 -0.156444 0.075334 0.066883 -0.112508 0.122250 -0.063114 -0.026632 -0.214777 0.178691 -0.020391 -0.143546 -0.059074 0.065707 0.077683 0.171789 -0.038014 0.052998 -0.093069 0.044638 -0.014742 -0.164492 -0.208988 0.145360 -0.107841 -0.085720 0.169789 0.101225 -0.070775 -0.022026 0.087015 0.043470 -0.101485 0.015603 -0.127983 0.047073 0.071663 -0.162152 -0.112112 -0.006306 0.101852 0.053697 0.152678 -0.019605 -0.138948 0.081284 0.186100 0.153487 -0.243951 -0.141393 -0.063083 0.223975 0.008580 0.285426
122 0.180266 -0.235405 0.086300 0.061159 0.021742 -0.045158 0.068033 -0.040054 0.078904 -0.112862 0.090977 0.120898 0.110525 -0.035575 -0.036440 0.116737 -0.237502 -0.004933 -0.015439 -0.138034 0.186252 -0.138683 -0.014407 0.054516 0.065580 0.146325 0.020701 0.065723 -0.276757 0.004672 -0.123637 0.051614 -0.069754 -0.095913 -0.032776 -0.205147 -0.110090 0.134172 -0.014694 -0.138596 -0.004371 -0.064329 0.144102 0.024066 0.057815 0.108337 -0.168099 0.013001 -0.088704 0.060896 -0.319064 -0.231324 -0.049847 0.163951 -0.002037 -0.206061 -0.203497 0.042290 -0.104917 -0.027820 0.276339 -0.080974 -0.104932 -0.024515
123 -0.007710 0.222599 -0.107110 -0.109794 -0.031484 -0.037505 -0.159223 0.028086 -0.135975 0.085927 0.039965 0.167921 0.020098 0.040981 -0.118444 0.253060 0.157383 0.134526 0.016670 -0.088916 -0.140628 0.019760 0.187651 0.034864 0.089435 -0.067265 0.260711 -0.195535 0.004280 -0.112684 0.190095 -0.132180 0.282930 -0.014431 -0.021923 0.088100 -0.019615 0.249537 0.021416 -0.016819 0.089020 -0.312835 0.094289 -0.015364 0.110425 0.167445 0.110821 0.025281 -0.123029 -0.084794 -0.145052 0.014402 -0.031142 0.159998 0.102225 0.107745 -0.005468 -0.084956 0.090462 0.007542 -0.030506 -0.167099 -0.060376 -0.098269
124 -0.264290 -0.120540 0.276934 0.001495 0.048085 0.031975 0.046517 0.206068 0.062089 0.000578 -0.061520 -0.203821 0.002031 0.057758 -0.075221 0.132612 0.238925 0.072620 0.109354 -0.023921 0.357962 -0.089929 -0.169199 0.107770 0.115218 -0.162419 -0.071430 0.072492 0.169304 -0.040901 -0.020247 -0.111271 0.188674 0.160277 0.053389 -0.015186 -0.002031 -0.050016 -0.188663 0.055270 -0.107922 -0.001304 0.017331 -0.138037 -0.063495 -0.070448 0.120414 -0.093385 -0.075889 -0.187446 -0.096586 0.059756 -0.007614 -0.152331 0.063183 -0.061460 0.191222 0.233034 -0.108048 -0.068874 -0.039208 0.055887 0.003804 -0.071891
125 -0.070372 0.040074 0.194134 -0.077286 0.060129 -0.032045 -0.029644 0.143234 0.078512 0.098829 0.030295 -0.138239 -0.100180 0.259776 -0.024681 -0.154487 0.230099 0.087784 -0.095326 -0.095697 -0.034018 0.154009 -0.179865 -0.027437 -0.031728 -0.066013 -0.069573 -0.186767 0.124324 0.204065 -0.019026 0.051074 -0.070294 -0.207386 -0.026308 -0.039584 -0.136379 0.156523 0.062092 -0.265469 -0.140262 -0.045560 -0.039919 -0.147127 0.141925 -0.104429 0.065106 -0.088024 -0.073218 0.063737 0.052560 -0.178381 0.137184 0.087868 0.083425 0.203758 0.244923 -0.129686 0.050421 -0.042080 -0.286122 0.001682 0.053907 0.056385
126 0.003688 0.017141 0.006644 -0.165865 0.183624 0.184984 0.072973 0.062429 0.000436 0.011621 0.034423 0.175787 0.046478 0.224859 -0.175307 -0.121352 0.248793 -0.158369 -0.032571 0.091440 0.132104 -0.169370 0.018265 0.258598 0.051609 0.065242 0.153962 -0.234766 0.012776 -0.068151 -0.161694 0.112965 -0.004336 -0.098615 0.086578 -0.119314 -0.049414 -0.104669 -0.189523 -0.055179 -0.083841 -0.015565 -0.009920 0.272667 0.093172 -0.055330 -0.009268 0.135894 -0.018652 -0.221188 -0.181791 -0.238310 -0.033632 -0.046425 -0.067116 -0.069616 0.067352 -0.062416 -0.184897 0.054894 -0.021691 0.059860 -0.146627 -0.081204
127 -0.089178 0.165471 0.149211 0.044332 0.039031 -0.026322 -0.094071 0.051689 -0.097500 0.104968 -0.113354 -0.111742 0.025508 0.293480 -0.046335 -0.066112 0.094918 0.125390 0.057330 -0.069993 -0.007272 -0.047868 0.270425 0.196343 0.106406 -0.079583 0.047751 0.001094 0.010001 0.036543 -0.057727 0.091411 -0.102848 -0.354047 0.169123 -0.210286 0.098962 0.011394 0.152379 -0.000765 0.044809 -0.005964 -0.239763 -0.201401 0.207831 0.058935 0.053707 0.007736 -0.074173 0.043241 0.032226 0.044747 0.073150 0.003578 0.200486 -0.145337 -0.025211 0.103381 0.064203 0.143145 -0.081013 0.095921 0.268805 -0.122036
128 0.041271 0.191697 0.029454 0.111487 0.028008 -0.065776 0.198740 0.050048 -0.018154 -0.066585 0.108680 -0.188670 -0.062075 0.217251 0.019549 -0.119800 -0.046450 0.042746 -0.183706 0.128772 0.067072 0.042462 0.069742 -0.086119 0.067300 -0.025668 -0.132926 -0.158915 0.021118 0.035182 -0.011517 0.045288 -0.011435 0.005702 -0.051054 0.005099 0.184438 0.110786 -0.025771 -0.022636 0.184357 0.243314 -0.111288 0.034614 0.154480 0.132498 -0.238935 -0.007466 -0.217562 0.342623 -0.025231 0.274438 -0.057558 0.006697 0.035524 0.028281 -0.191826 -0.076118 0.125808 0.234193 0.182340 -0.095138 -0.019320 -0.025914
129 0.031879 0.074357 -0.199461 -0.103425 -0.080050 -0.225681 -0.058625 -0.091125 0.125450 0.017622 -0.257631 0.235066 -0.041981 -0.187467 0.002541 -0.217118 0.169597 0.087685 0.051263 0.252372 0.020867 -0.098238 0.118009 -0.067381 -0.139819 0.173594 -0.132746 0.066668 -0.150553 0.032626 -0.201608 0.041126 -0.105175 0.035356 0.080307 -0.086106 -0.007896 0.286253 -0.002503 0.022056 0.015772 -0.079981 0.053729 0.110594 -0.020927 0.158471 0.016151 0.114115 0.008616 -0.062647 -0.065957 -0.182435 0.053368 0.016523 0.100293 -0.041612 -0.053915 -0.249823 -0.050673 -0.001753 0.055999 -0.163120 0.094220 0.225162
130 0.056954 -0.086007 -0.261355 -0.202894 -0.095680 -0.060449 -0.008600 0.171417 -0.036190 -0.134979 0.105821 0.055164 0.042603 -0.234103 -0.052101 -0.021472 0.058747 -0.018755 0.014743 -0.025061 0.049891 -0.125444 0.061653 -0.093377 -0.214860 0.058244 0.241486 -0.190383 0.006589 -0.023379 -0.053818 -0.000239 0.050605 0.032033 -0.308560 -0.049074 -0.100437 0.100629 0.137792 0.032629 -0.083604 0.212048 -0.059982 0.000151 -0.059774 -0.061205 0.121290 -0.136586 -0.002169 0.024036 -0.158120 -0.194812 -0.029656 0.155582 -0.125587 0.196131 0.062309 0.006720 -0.156957 -0.049585 -0.137415 0.244272 0.082963 -0.253044
131 -0.166825 -0.043849 -0.073489 -0.051956 0.203239 0.013299 0.172924 -0.022424 0.019070 -0.166907 0.058336 0.049868 -0.022269 0.133917 -0.172024 -0.039562 0.080856 -0.095325 0.069330 0.002856 -0.160876 0.023138 0.112284 0.007749 0.149609 0.021396 -0.015194 0.245808 0.182984 0.106674 -0.068170 -0.246142 -0.093503 0.081721 0.167475 -0.113347 -0.046711 0.125785 -0.052721 -0.087293 -0.292052 -0.028392 0.167779 0.001330 0.133528 -0.081917 0.120750 -0.089133 -0.138658 -0.004102 0.222469 0.156412 0.000120 -0.131350 0.016309 0.319088 0.066016 -0.169163 0.142549 -0.048320 0.058442 0.010962 0.046615 0.183128
132 0.151697 -0.016020 -0.183232 -0.054531 -0.002816 0.096473 -0.106826 0.238299 -0.193607 0.177642 -0.022517 0.003289 0.061262 -0.099749 0.017617 -0.110595 -0.102227 0.000061 0.123371 0.002230 -0.117083 -0.222238 0.048269 0.029256 0.208812 -0.079866 0.124265 0.254494 -0.153073 0.127435 -0.137645 0.181750 0.003078 -0.208189 -0.243308 -0.229636 0.038059 -0.052851 -0.092022 0.045737 -0.049743 -0.150745 -0.052550 0.029048 -0.051109 -0.064505 0.062605 0.008225 -0.138436 0.133593 0.141278 -0.136213 0.111258 0.163918 0.100290 0.214810 -0.008948 -0.133132 0.005521 0.063077 -0.077809 0.050521 0.179234 -0.099494
133 0.090218 0.002856 -0.103673 0.216468 0.005671 -0.073984 -0.235526 0.086888 0.045291 -0.201154 0.178738 0.153188 -0.097270 -0.190221 -0.157053 0.086167 0.034284 0.031919 0.101507 0.024090 0.020205 0.266613 -0.115248 0.046214 -0.014525 -0.090995 0.048165 0.249388 0.044906 0.022014 -0.084152 0.032988 0.076644 -0.159566 0.083928 -0.246359 0.128900 -0.006630 -0.047423 -0.056910 0.191489 0.000275 -0.013947 -0.165845 -0.100911 -0.243134 -0.113342 0.093731 -0.155309 -0.075871 -0.078840 -0.098656 -0.083867 0.242698 -0.078477 -0.105589 0.029890 -0.118242 -0.060807 0.010456 0.103523 0.029666 -0.240773 0.112055
134 0.181164 -0.083841 -0.042547 0.066402 -0.079099 0.071586 -0.143387 0.076143 -0.068384 0.093039 0.022814 -0.079087 0.020877 -0.089640 0.042053 -0.154395 -0.049960 0.168957 -0.008387 -0.091021 -0.193572 0.147130 -0.367570 -0.157577 0.156582 -0.082882 0.084594 0.110103 0.054459 -0.111997 -0.160928 0.015675 0.067447 -0.037864 0.149127 0.005332 0.080894 0.065355 0.062253 0.317178 -0.084790 -0.118183 -0.023729 0.178754 0.079191 -0.083182 0.069671 0.028957 0.091060 -0.180240 -0.122193 -0.094305 -0.012164 -0.061697 -0.140583 -0.127685 -0.080220 0.002625 0.236489 -0.296537 -0.071260 0.045239 -0.109198 -0.145462
135 0.134509 -0.017110 0.053845 -0.036771 0.267339 0.095742 -0.001784 0.110806 -0.190638 -0.012629 -0.146292 -0.063716 -0.072601 0.044581 -0.028304 -0.040148 -0.023817 -0.115415 0.228497 -0.021921 0.083101 0.104420 0.081365 0.060499 0.267820 -0.112457 0.060530 0.112859 -0.052247 -0.265209 0.071487 -0.030129 -0.182643 -0.174534 0.006051 0.157949 0.068673 -0.208181 0.112488 0.023789 -0.143379 -0.199973 -0.019250 0.103422 -0.093483 -0.018784 0.027679 -0.137188 0.077039 0.129306 0.018466 -0.072947 0.095900 0.269148 -0.147949 0.029654 -0.033223 0.106339 0.209874 0.068130 0.211434 -0.060813 0.161167 -0.140391
136 0.066838 -0.016121 -0.158243 -0.045453 -0.068783 -0.062353 -0.109095 -0.037393 -0.002904 -0.107000 -0.016969 -0.103035 -0.131813 -0.244019 -0.157226 -0.070590 -0.119271 0.082132 -0.011613 -0.173853 0.160375 -0.291389 0.224427 -0.123879 0.106664 0.040899 -0.170243 0.059780 -0.136445 -0.091248 -0.059449 -0.070871 0.041540 -0.069853 0.101903 0.081550 0.055328 0.009832 -0.040040 -0.333766 0.121081 -0.111137 0.084884 0.086601 0.260038 0.141285 0.040843 0.157992 0.038950 0.037866 0.026203 -0.194422 0.065959 0.229421 0.007527 0.028784 0.030147 -0.227781 -0.019669 -0.072019 0.100865 0.172010 -0.112986 -0.050546
137 -0.045548 0.162168 -0.011010 -0.025369 -0.065888 -0.064507 0.070641 0.055781 -0.114164 -0.059575 0.130496 -0.004866 0.125978 -0.142698 0.073577 -0.124405 0.050466 0.103291 -0.032326 -0.145881 -0.116535 0.050261 0.064023 0.241214 -0.011240 0.089809 0.010604 -0.328110 -0.182315 0.054434 0.279506 0.194614 0.046304 -0.005755 -0.190504 0.153265 -0.093890 0.036173 -0.070697 0.158252 -0.250617 0.343615 0.084671 0.041906 0.096036 0.044252 0.037550 0.161085 -0.153558 -0.015724 -0.109861 -0.066518 -0.048297 0.036990 -0.078551 0.127129 -0.070805 -0.032377 0.110821 0.012685 0.183704 -0.138948 0.089869 -0.070350
138 -0.113859 0.167514 0.014075 -0.059302 -0.060486 -0.256923 0.136928 0.058613 -0.046214 0.024778 -0.144075 0.081517 -0.170078 -0.013465 -0.020486 0.132156 -0.130609 0.066863 -0.134291 0.109315 0.033626 0.114028 0.202835 0.147273 -0.049522 -0.165075 -0.042181 -0.136880 -0.021869 -0.062887 0.018302 -0.159412 0.018140 -0.038801 -0.097727 0.031820 -0.084499 0.049310 0.100631 -0.269741 0.153834 0.102748 -0.094039 -0.005341 0.177763 0.213962 0.065790 0.099067 0.248889 0.063347 0.002387 -0.160075 0.178063 0.227725 -0.010427 0.177997 -0.058088 -0.032708 0.241614 -0.087824 0.142824 -0.011898 -0.198475 -0.022435
139 0.237512 0.051713 0.257589 0.023808 0.183233 0.065493 0.128865 0.156363 -0.033586 -0.117554 0.152960 0.037246 0.076170 0.012958 0.063756 -0.082624 -0.306851 0.136038 0.051477 0.214854 -0.188702 0.069609 0.056901 0.149836 0.001344 0.066349 0.089585 0.216304 0.044654 -0.129982 0.002659 -0.105612 0.122793 -0.013176 0.026601 0.140694 -0.180485 -0.038299 -0.232251 -0.012687 -0.191686 0.187932 0.144882 -0.024270 0.114578 0.140537 0.251987 0.031954 0.022307 0.197512 0.049625 0.017724 -0.045651 0.039855 -0.079320 0.033664 0.012812 0.128529 -0.047495 -0.094370 -0.110836 0.077586 0.067949 -0.050118
140 0.130361 -0.043245 0.040276 0.209770 0.095335 0.118173 -0.017269 0.132505 -0.120835 -0.063858 -0.057619 0.241843 0.055382 -0.152589 -0.039717 -0.248862 -0.036780 0.118990 -0.162140 -0.140868 0.177082 -0.117553 -0.169847 -0.026682 0.095688 0.094926 -0.095896 -0.137007 0.019532 0.013396 0.133190 0.023535 -0.168916 0.115680 -0.183431 0.155760 0.001583 0.142033 -0.021103 0.081486 -0.148331 -0.001722 0.106444 0.029509 0.084465 0.096159 -0.170657 -0.079109 -0.174124 -0.082478 0.063298 -0.153603 -0.153516 0.257495 0.216228 -0.055536 -0.093739 -0.045219 0.054743 0.157573 0.175744 -0.056311 0.017087 0.179977
141 -0.098366 0.100235 -0.098300 -0.303540 -0.090120 0.167199 -0.093407 -0.008311 -0.089101 -0.043796 -0.006921 0.148846 0.238317 -0.037429 -0.060917 0.040920 0.181489 0.117718 -0.177161 0.040544 -0.047259 0.243557 0.088106 0.039781 -0.082858 0.105980 -0.028805 0.056949 0.012599 -0.049316 0.023713 -0.104436 -0.101245 0.097670 0.076429 0.243292 0.096513 0.261643 -0.086258 0.063777 0.075028 0.017164 0.018374 0.060344 0.081731 0.058376 -0.017659 0.134061 -0.145442 0.072535 -0.114838 -0.117384 0.028673 0.228151 0.149953 0.115646 0.239182 0.047063 -0.067615 0.019254 -0.233963 -0.133169 0.242016 -0.033267
142 0.125785 0.172292 -0.017943 0.170682 -0.100463 -0.109164 0.115009 0.235518 -0.180481 0.209753 -0.050228 0.056472 0.096232 -0.049251 0.170667 0.055426 -0.004136 0.012490 -0.015275 0.257072 0.094877 -0.159424 -0.025536 0.081407 -0.215194 0.055417 -0.120934 0.226536 -0.149681 -0.052636 0.160810 -0.046445 0.138682 0.058214 0.152050 -0.101782 0.086376 0.037095 0.050981 0.085908 -0.105340 -0.180750 -0.108378 -0.035976 -0.047677 -0.080775 -0.001120 0.216856 -0.006389 0.103247 0.037127 0.081435 -0.153136 0.125936 -0.053988 0.029232 0.242048 0.058235 -0.133437 -0.059771 0.027748 0.125794 -0.217305 0.186952
143 -0.154672 -0.162189 0.021745 -0.205066 0.172755 0.003045 0.111270 -0.110165 -0.132368 -0.110922 0.300560 -0.187535 0.094895 0.064639 -0.003213 0.043562 0.087746 0.166265 0.120045 0.174938 -0.197777 -0.000242 0.150988 0.171047 0.056141 0.126077 -0.165550 0.043846 0.186089 -0.104402 0.099393 0.020695 0.038934 -0.178837 0.087427 0.097585 0.006546 0.105061 0.009003 0.016179 -0.047500 -0.086490 0.039649 -0.123174 0.136399 -0.039005 0.174887 0.045836 0.109298 0.127620 0.198465 0.020267 -0.108769 -0.223732 -0.144342 0.223377 0.051568 0.054698 -0.061589 0.015974 -0.069295 0.040537 0.101434 0.195571
144 0.021837 -0.004245 -0.107095 0.048341 0.057452 -0.101173 -0.025110 0.065345 0.146121 -0.096157 -0.103828 0.030924 0.089703 0.080980 -0.110904 -0.038784 -0.008559 -0.024143 0.267036 0.049938 -0.067262 -0.257082 -0.098462 0.158146 -0.010757 0.150251 0.019982 -0.017948 0.105506 0.069135 0.062049 -0.207703 0.177619 -0.038127 -0.254053 0.087921 -0.205226 0.077468 0.042165 -0.013248 0.234346 0.042539 -0.037519 -0.078845 0.054583 0.088325 -0.025816 -0.139477 -0.211620 -0.166371 -0.114733 0.043504 -0.129302 -0.098611 -0.170691 -0.065388 0.016000 -0.064153 -0.255620 0.096176 0.143400 -0.143741 0.123131 0.311616
145 -0.002258 -0.104945 -0.031149 0.107364 0.014280 -0.082753 0.054682 -0.016390 -0.024705 0.053054 -0.064829 0.083411 0.135877 -0.017382 -0.126182 0.173665 0.106264 0.069247 0.051023 -0.050550 -0.128218 0.027316 -0.009336 0.016505 -0.139613 0.271341 0.035191 -0.014450 0.199366 0.077644 -0.001283 -0.357810 0.048788 0.050398 0.044724 -0.026322 0.107183 0.022199 0.160767 0.161302 0.296156 0.132775 -0.209550 -0.229897 -0.190388 -0.102612 -0.123014 0.010470 -0.215908 0.046974 0.050056 -0.158700 -0.080308 -0.114465 0.142171 -0.030255 0.152201 0.155942 -0.134180 -0.171259 0.092914 0.105395 0.039227 0.103496
146 -0.183720 0.141844 0.019098 -0.204626 0.108383 -0.033419 0.048466 0.006310 -0.110145 0.024271 0.160368 0.048416 -0.235932 -0.091200 -0.041540 0.129139 0.147783 -0.349528 0.038903 0.279516 0.135110 -0.034668 0.184522 -0.012323 0.150946 -0.049217 0.041964 0.183939 -0.075081 0.069130 -0.039938 -0.134868 0.037579 0.006836 -0.106881 0.061315 0.025502 0.186618 0.156475 0.173107 -0.117143 -0.078238 -0.256162 -0.009835 0.043653 0.068431 -0.132601 -0.011054 -0.035006 0.056187 -0.105144 0.003711 0.007900 -0.042799 0.148389 -0.074191 0.083624 -0.213261 0.096973 0.112143 -0.078833 0.045437 0.011249 -0.230241
147 -0.230583 -0.057992 0.213046 0.203362 0.111629 0.028867 -0.086611 -0.034996 0.290171 -0.055428 -0.077580 0.114032 -0.050511 0.160725 -0.189993 0.041639 -0.082029 0.154411 0.199675 0.218654 -0.040870 0.098417 -0.162987 0.083402 0.014524 -0.020953 0.009656 -0.162792 -0.121459 0.010536 0.008607 -0.213831 0.076765 0.103703 -0.061412 0.063750 0.087379 0.080245 0.041949 0.014018 -0.103930 0.001642 0.021143 -0.031277 -0.055632 0.192702 -0.190379 0.090006 -0.149060 -0.114270 -0.031675 0.022998 -0.050849 0.022776 0.249450 0.016807 -0.140264 -0.052312 0.080485 0.321510 -0.055338 0.181506 -0.027009 0.049287
148 -0.046575 -0.133537 -0.065389 -0.165831 -0.260995 -0.056116 0.085531 0.082629 0.054198 0.013343 -0.147112 -0.142249 -0.021670 -0.277251 0.078125 -0.107329 0.025999 -0.053981 -0.036601 -0.111419 0.041345 0.148922 0.055263 -0.185589 -0.040450 0.122824 0.062923 0.110279 0.053289 0.068135 -0.254029 0.033327 -0.072337 -0.088465 -0.135150 0.109037 -0.069771 0.144226 0.059214 0.222619 -0.124053 -0.172525 0.131718 0.071711 0.098587 0.069314 0.193911 0.085592 0.076451 -0.251844 0.036902 0.249329 -0.133948 0.054727 0.039323 0.012374 0.165737 -0.025204 -0.123977 -0.251795 0.112554 0.114435 0.010675 -0.030554
149 0.018722 -0.012926 0.135652 0.045603 -0.195484 -0.064132 0.078640 -0.005930 0.106541 0.106922 -0.061747 0.247795 -0.142920 0.191267 -0.187119 0.069422 -0.142322 -0.151332 -0.010445 0.053395 0.088040 0.276970 -0.103821 -0.117581 -0.290517 -0.115791 -0.054451 -0.082022 -0.061933 0.282308 0.056397 -0.134966 -0.012020 0.095215 0.222628 0.089928 0.143231 0.121312 0.002699 0.089777 -0.194709 -0.000704 0.119953 -0.060826 -0.223796 0.078253 0.112347 0.148252 -0.058908 -0.085538 0.065526 -0.143853 0.006715 0.162573 -0.004230 -0.089297 -0.169417 -0.017177 -0.021378 -0.073717 -0.063049 -0.089496 -0.058649 -0.021830
150 -0.104677 0.135625 0.048047 -0.077647 -0.000296 -0.066539 0.041243 -0.061458 -0.154143 -0.024122 -0.135414 0.021251 -0.040559 0.009871 -0.063680 0.187956 -0.195074 0.182023 0.041328 0.095655 0.088890 0.096297 0.093958 -0.098124 -0.030290 -0.005910 -0.070407 -0.062418 0.246972 -0.029350 -0.049879 -0.246455 0.009727 -0.017232 -0.102991 0.076939 -0.122905 0.115744 -0.245239 0.141650 0.160885 0.286287 -0.177183 -0.002384 0.054351 -0.118470 -0.037267 -0.292434 -0.311526 0.013381 0.008024 0.065354 -0.096663 -0.095130 -0.008480 0.084486 -0.115586 0.003832 0.057184 0.097839 -0.252001 -0.172927 0.004756 -0.001763
151 -0.024872 -0.003646 0.073150 0.086344 0.023095 0.154782 -0.185670 0.070063 0.004793 0.117678 0.035984 0.094294 -0.203131 0.050747 -0.052452 -0.003226 -0.096606 0.096949 0.033746 -0.299356 -0.080762 0.126682 -0.119307 -0.018366 0.097122 0.088926 0.198652 0.042560 -0.078109 0.079912 0.041871 -0.105167 0.265949 0.122507 0.062486 0.243866 0.195190 0.078585 -0.038143 0.173627 0.148618 -0.104333 0.115768 0.044745 0.130405 -0.144069 -0.014189 0.035324 -0.135342 -0.085376 0.012137 -0.248184 0.055334 -0.109790 0.170180 -0.224258 0.079284 0.037480 0.050517 -0.044586 -0.176354 0.254579 0.131145 -0.043098
152 0.025369 0.075736 -0.079222 -0.088964 0.033467 -0.079347 0.253595 0.256784 -0.021554 0.053961 0.166856 0.286289 0.066199 0.128250 0.049413 -0.100642 -0.051533 0.117116 0.050522 0.100119 0.244515 -0.233727 0.075384 0.107290 0.038234 -0.026548 -0.066921 -0.006357 0.286755 0.007807 0.097061 0.098180 0.047232 -0.248719 -0.081710 -0.007339 -0.111900 0.130265 0.040769 0.054137 0.041830 0.065146 -0.176307 -0.029204 0.163242 -0.042131 0.050239 -0.103962 -0.029036 -0.184636 0.096745 -0.108402 0.086620 -0.031728 -0.007727 -0.240846 0.027356 0.012546 0.040488 0.046376 -0.026117 -0.200948 0.007221 -0.271239
153 -0.137259 0.181809 -0.129689 -0.086880 0.115286 0.186179 -0.028574 0.205249 -0.022367 -0.048979 0.203919 0.062987 0.104873 -0.135581 0.041073 -0.006687 -0.012496 0.004745 -0.004287 0.204066 -0.126936 0.160681 -0.167132 0.079614 -0.099886 -0.140705 -0.010002 -0.032025 0.026064 -0.101784 -0.133116 0.093493 -0.034073 0.128824 0.215687 0.061832 0.100208 0.181204 -0.155024 -0.137123 0.099405 -0.003269 0.026218 0.090148 -0.016170 -0.055328 0.171755 0.140938 -0.146087 0.000448 0.293939 0.067674 -0.188362 -0.060492 0.151198 0.077136 -0.000003 -0.116054 -0.014320 -0.169869 0.037091 0.310373 -0.086104 0.117091
154 0.085524 0.092981 0.024750 -0.043563 0.179351 -0.089258 -0.084855 -0.006904 -0.196526 0.042571 0.092882 -0.072961 -0.043431 0.018361 -0.010053 0.136240 -0.158624 -0.057561 -0.124184 0.118663 -0.089353 -0.050811 0.012389 0.087805 0.001941 -0.048120 -0.069557 0.226356 -0.179941 -0.020904 -0.107113 -0.105995 -0.097639 -0.107156 0.091683 -0.096201 -0.012018 0.118880 0.112769 0.120260 -0.041331 -0.007594 -0.139038 -0.081966 -0.148339 -0.489520 0.029311 0.073437 0.066217 -0.200000 0.078133 -0.268958 -0.202932 -0.182356 0.054212 0.123703 -0.031179 0.083853 0.051782 0.111592 0.121195 -0.120318 -0.049549 -0.149855
155 -0.019156 -0.067460 0.025252 -0.021019 -0.014407 -0.136798 -0.237832 0.030203 -0.205311 0.145967 -0.072081 0.163182 -0.177364 0.000764 -0.106919 -0.012315 0.103308 0.238938 0.205199 -0.168285 0.279361 0.044233 0.016038 -0.126817 -0.031909 0.238140 -0.117402 -0.263504 -0.023280 0.217259 -0.013030 -0.143911 0.166054 -0.058958 -0.007078 -0.148002 -0.067301 0.048712 -0.172358 -0.065412 0.086119 0.050934 -0.050411 -0.085132 0.095248 0.061106 0.127767 -0.035724 0.230748 0.014500 -0.113570 -0.097700 -0.190864 0.024163 0.087576 0.164618 -0.006222 -0.014420 0.065749 -0.012646 0.107054 0.008532 -0.034528 0.161081
156 0.003029 0.015675 -0.067753 -0.015093 0.360924 -0.018959 0.194405 -0.089263 -0.052346 0.209855 0.009576 -0.057691 -0.106580 0.049468 0.023367 -0.163652 0.232936 0.006883 -0.128990 0.060823 -0.024982 0.314409 -0.141211 0.065785 -0.158763 -0.084505 0.068679 -0.119691 -0.131528 0.012349 0.006569 0.016348 0.089300 -0.023792 0.086077 -0.099683 -0.053593 0.080291 -0.126151 -0.073700 -0.163209 0.042902 0.010975 0.081383 -0.036776 0.221160 -0.010844 -0.000754 0.087467 -0.030186 -0.052225 -0.025506 0.080900 -0.266387 -0.151499 -0.404083 0.013464 0.091438 0.013527 0.074810 0.045492 -0.094399 -0.033053 -0.124231
157 -0.025227 0.039207 -0.106806 -0.038702 -0.233596 -0.065046 -0.119726 -0.118340 0.096353 -0.061345 0.294880 -0.098258 -0.058590 -0.119461 0.003431 0.044954 -0.048001 0.114982 0.175424 0.100851 -0.074267 -0.180865 0.320968 0.178220 0.023178 -0.133802 0.002775 0.078565 -0.098925 0.035864 -0.022623 -0.111219 0.079399 -0.128785 -0.063194 -0.209880 -0.100518 0.170687 0.006934 0.146340 0.049478 0.069273 -0.066943 0.225094 0.067331 -0.136954 -0.074639 -0.036572 0.041380 0.010218 0.000604 -0.181148 -0.066426 -0.026492 -0.137953 -0.082810 -0.128653 -0.333513 0.058689 -0.060029 0.185658 -0.038822 -0.085260 0.149663
158 0.072012 -0.029981 -0.035013 0.103602 0.071767 -0.066312 -0.112046 0.012501 0.196300 -0.141310 -0.011479 -0.053029 -0.187161 0.012465 -0.009949 0.072558 -0.115533 0.178201 -0.255160 0.260393 0.176788 0.108973 -0.049539 -0.058603 -0.093185 0.169820 0.169826 0.093076 -0.056951 0.010652 -0.058632 -0.071716 0.107728 -0.272131 0.045785 -0.026994 -0.034387 0.143846 -0.070702 0.065145 0.063449 -0.078860 -0.301986 0.211263 0.088823 -0.055272 0.021152 -0.045153 0.018751 0.024559 0.156487 -0.144877 -0.207919 -0.069163 0.028841 -0.125205 0.238207 0.151536 -0.109003 0.073024 -0.068184 -0.027782 0.173170 -0.146010
159 0.089843 -0.066939 0.015937 -0.040039 -0.060722 0.155273 0.188342 0.050912 0.165006 -0.210470 0.135523 -0.098067 0.078572 -0.127964 0.208661 0.025341 -0.138181 -0.185435 -0.042907 -0.105542 0.127974 0.194396 -0.176874 0.024885 -0.130299 -0.123606 -0.041373 0.126214 0.121443 -0.174566 -0.074528 -0.119314 -0.007263 -0.010394 -0.077426 -0.074022 0.273693 0.056395 -0.072719 0.001963 -0.192485 0.014421 0.098095 -0.022283 -0.189913 -0.005607 0.034956 0.177755 -0.269356 0.106736 0.062168 -0.075725 -0.083283 -0.052261 -0.134577 -0.017254 0.019970 -0.083846 -0.062898 -0.077489 0.059334 -0.297804 -0.112671 -0.175579
160 0.113525 0.185618 0.056339 0.065646 0.090292 0.018580 -0.037395 0.006758 0.112529 -0.127940 0.210059 0.061970 -0.041615 0.010334 -0.002851 0.018807 0.074954 0.129948 0.257509 -0.070811 -0.128416 -0.130721 0.168962 0.124403 0.111782 -0.009979 0.250033 -0.061979 -0.111489 -0.275622 0.068324 0.077243 -0.258618 -0.013849 0.056630 -0.201721 -0.064559 -0.021542 -0.058470 -0.099327 -0.047288 -0.196550 0.189198 -0.019089 0.136711 -0.023727 0.165042 -0.046733 0.146986 -0.088903 0.062052 -0.159415 0.045463 -0.194791 -0.138934 -0.049377 0.207261 0.040089 -0.107269 -0.070034 -0.180800 0.100377 -0.146280 0.079770
161 -0.041243 -0.146374 0.002335 0.105542 0.203892 0.086529 0.056768 -0.010052 0.079126 -0.150275 -0.032537 0.047398 -0.088776 0.229115 -0.035049 -0.082076 0.100122 0.149505 -0.085792 -0.410171 0.157180 0.102102 -0.131610 0.003106 0.017575 -0.053876 -0.078404 0.004269 -0.163531 -0.176792 0.011332 -0.009141 0.035655 -0.014065 -0.026221 -0.012630 0.162392 -0.225264 -0.043356 -0.060238 0.134822 0.026897 -0.288093 0.046517 0.114700 0.040874 -0.004138 0.106553 -0.001638 -0.140655 -0.093951 -0.111701 -0.050192 -0.237181 -0.031948 0.159775 -0.093306 0.020359 0.033018 -0.022252 -0.168680 0.087248 0.031659 -0.308947
162 -0.200764 -0.221083 0.063265 -0.130844 -0.126628 0.172719 -0.075021 0.046428 0.141632 -0.075304 0.040171 -0.098790 0.137711 0.159120 0.006502 0.131496 -0.080360 0.071335 0.006460 -0.035390 0.073465 -0.214984 0.121446 0.270165 0.117724 0.057396 0.129517 0.121519 0.169632 -0.062863 -0.035293 0.167890 -0.188074 -0.172171 -0.148176 0.078470 0.020722 0.144920 0.040832 -0.028842 -0.011504 -0.115481 0.123854 -0.041227 0.096686 -0.080565 -0.141522 -0.166173 0.095002 0.008840 0.040423 0.136272 0.039505 0.043021 0.043962 -0.359353 -0.171941 0.016513 0.075668 -0.127870 -0.066417 0.109866 0.172028 0.038112
